{"learner":{"attributes":{"scikit_learn":"{\"_estimator_type\": \"regressor\"}"},"feature_names":["minimum_nights","host_response_rate","host_acceptance_rate","host_is_superhost","host_identity_verified","accommodates","bathrooms","bedrooms","beds","number_of_reviews","review_scores_rating","instant_bookable","entire_home_apt","private_room","shared_room","hotel_room","leopoldstadt","others","margareten","brigittenau","landstrae","ottakring","rudolfsheim_fnfhaus","neubau","alsergrund","meidling","favoriten"],"feature_types":["int","float","float","i","i","int","float","float","float","int","float","i","i","i","i","i","i","i","i","i","i","i","i","i","i","i","i"],"gradient_booster":{"model":{"cats":{"enc":[],"feature_segments":[],"sorted_idx":[]},"gbtree_model_param":{"num_parallel_tree":"1","num_trees":"100"},"iteration_indptr":[0,1,2,3,4,5,6,7,8,9,10,11,12,13,14,15,16,17,18,19,20,21,22,23,24,25,26,27,28,29,30,31,32,33,34,35,36,37,38,39,40,41,42,43,44,45,46,47,48,49,50,51,52,53,54,55,56,57,58,59,60,61,62,63,64,65,66,67,68,69,70,71,72,73,74,75,76,77,78,79,80,81,82,83,84,85,86,87,88,89,90,91,92,93,94,95,96,97,98,99,100],"tree_info":[0,0,0,0,0,0,0,0,0,0,0,0,0,0,0,0,0,0,0,0,0,0,0,0,0,0,0,0,0,0,0,0,0,0,0,0,0,0,0,0,0,0,0,0,0,0,0,0,0,0,0,0,0,0,0,0,0,0,0,0,0,0,0,0,0,0,0,0,0,0,0,0,0,0,0,0,0,0,0,0,0,0,0,0,0,0,0,0,0,0,0,0,0,0,0,0,0,0,0,0],"trees":[{"base_weights":[1.615188E-7,-1.5520233E-1,4.024327E-1,-5.842321E-1,-8.275578E-2,2.917688E-1,8.7461424E-1,6.876915E-2,-6.010114E-2,3.0253831E-2,-1.0658869E-2,1.46371825E-2,3.827044E-2,6.617588E-2,1.0472474E-1],"categories":[],"categories_nodes":[],"categories_segments":[],"categories_sizes":[],"default_left":[0,0,0,0,0,0,0,0,0,0,0,0,0,0,0],"id":0,"left_children":[1,3,5,7,9,11,13,-1,-1,-1,-1,-1,-1,-1,-1],"loss_changes":[2.547059E2,9.142517E1,5.905249E1,9.483658E0,2.3163406E1,1.2121231E1,7.2073517E0,0E0,0E0,0E0,0E0,0E0,0E0,0E0,0E0],"parents":[2147483647,0,0,1,1,2,2,3,3,4,4,5,5,6,6],"right_children":[2,4,6,8,10,12,14,-1,-1,-1,-1,-1,-1,-1,-1],"split_conditions":[2E0,1E0,2E0,5E-1,1E0,4.71E0,3E0,6.876915E-2,-6.010114E-2,3.0253831E-2,-1.0658869E-2,1.46371825E-2,3.827044E-2,6.617588E-2,1.0472474E-1],"split_indices":[7,12,6,6,4,10,7,0,0,0,0,0,0,0,0],"split_type":[0,0,0,0,0,0,0,0,0,0,0,0,0,0,0],"sum_hessian":[4.076E3,2.942E3,1.134E3,4.24E2,2.518E3,9.2E2,2.14E2,5E0,4.19E2,1.46E2,2.372E3,3.55E2,5.65E2,9.8E1,1.16E2],"tree_param":{"num_deleted":"0","num_feature":"27","num_nodes":"15","size_leaf_vector":"1"}},{"base_weights":[6.189199E-5,-1.3967262E-1,3.6238664E-1,-5.257886E-1,-7.4472554E-2,2.6264942E-1,7.879476E-1,6.30384E-2,-5.410535E-2,-4.2756908E-3,-3.152789E-2,1.8882662E-2,4.292591E-2,-3.516347E-2,8.112176E-2],"categories":[],"categories_nodes":[],"categories_segments":[],"categories_sizes":[],"default_left":[0,0,0,0,0,0,0,0,0,0,0,0,0,0,0],"id":1,"left_children":[1,3,5,7,9,11,13,-1,-1,-1,-1,-1,-1,-1,-1],"loss_changes":[2.0646617E2,7.4050255E1,4.796727E1,7.84182E0,1.9224949E1,1.1246872E1,5.9866333E0,0E0,0E0,0E0,0E0,0E0,0E0,0E0,0E0],"parents":[2147483647,0,0,1,1,2,2,3,3,4,4,5,5,6,6],"right_children":[2,4,6,8,10,12,14,-1,-1,-1,-1,-1,-1,-1,-1],"split_conditions":[2E0,1E0,2E0,5E-1,8E0,1.5E0,1E0,6.30384E-2,-5.410535E-2,-4.2756908E-3,-3.152789E-2,1.8882662E-2,4.292591E-2,-3.516347E-2,8.112176E-2],"split_indices":[7,12,6,6,0,6,12,0,0,0,0,0,0,0,0],"split_type":[0,0,0,0,0,0,0,0,0,0,0,0,0,0,0],"sum_hessian":[4.076E3,2.942E3,1.134E3,4.24E2,2.518E3,9.2E2,2.14E2,5E0,4.19E2,2.226E3,2.92E2,6.39E2,2.81E2,4E0,2.1E2],"tree_param":{"num_deleted":"0","num_feature":"27","num_nodes":"15","size_leaf_vector":"1"}},{"base_weights":[7.558752E-5,-1.257144E-1,3.2624286E-1,-4.731888E-1,-6.70394E-2,2.3645154E-1,7.0936644E-1,5.778521E-2,-4.87077E-2,2.7710771E-2,-8.833E-3,1.0767837E-2,3.1702895E-2,5.1829796E-2,8.649769E-2],"categories":[],"categories_nodes":[],"categories_segments":[],"categories_sizes":[],"default_left":[0,0,0,0,0,0,0,0,0,0,0,0,0,0,0],"id":2,"left_children":[1,3,5,7,9,11,13,-1,-1,-1,-1,-1,-1,-1,-1],"loss_changes":[1.6731453E2,5.9970325E1,3.887761E1,6.4852295E0,1.8481434E1,9.52235E0,5.944107E0,0E0,0E0,0E0,0E0,0E0,0E0,0E0,0E0],"parents":[2147483647,0,0,1,1,2,2,3,3,4,4,5,5,6,6],"right_children":[2,4,6,8,10,12,14,-1,-1,-1,-1,-1,-1,-1,-1],"split_conditions":[2E0,1E0,2E0,5E-1,1E0,4.71E0,3E0,5.778521E-2,-4.87077E-2,2.7710771E-2,-8.833E-3,1.0767837E-2,3.1702895E-2,5.1829796E-2,8.649769E-2],"split_indices":[7,12,6,6,4,10,7,0,0,0,0,0,0,0,0],"split_type":[0,0,0,0,0,0,0,0,0,0,0,0,0,0,0],"sum_hessian":[4.076E3,2.942E3,1.134E3,4.24E2,2.518E3,9.2E2,2.14E2,5E0,4.19E2,1.46E2,2.372E3,3.55E2,5.65E2,9.8E1,1.16E2],"tree_param":{"num_deleted":"0","num_feature":"27","num_nodes":"15","size_leaf_vector":"1"}},{"base_weights":[1.191383E-4,-1.1313356E-1,2.937778E-1,-4.2584875E-1,-6.032804E-2,2.128524E-1,6.3907313E-1,5.296979E-2,-4.384855E-2,-3.2017026E-3,-2.753052E-2,1.4738088E-2,3.6068548E-2,-6.942851E-2,6.548525E-2],"categories":[],"categories_nodes":[],"categories_segments":[],"categories_sizes":[],"default_left":[0,0,0,0,0,0,0,0,0,0,0,0,0,0,0],"id":3,"left_children":[1,3,5,7,9,11,13,-1,-1,-1,-1,-1,-1,-1,-1],"loss_changes":[1.356246E2,4.8572323E1,3.1579445E1,5.3641357E0,1.5322375E1,8.861073E0,4.978157E0,0E0,0E0,0E0,0E0,0E0,0E0,0E0,0E0],"parents":[2147483647,0,0,1,1,2,2,3,3,4,4,5,5,6,6],"right_children":[2,4,6,8,10,12,14,-1,-1,-1,-1,-1,-1,-1,-1],"split_conditions":[2E0,1E0,2E0,5E-1,8E0,1.5E0,2E0,5.296979E-2,-4.384855E-2,-3.2017026E-3,-2.753052E-2,1.4738088E-2,3.6068548E-2,-6.942851E-2,6.548525E-2],"split_indices":[7,12,6,6,0,6,5,0,0,0,0,0,0,0,0],"split_type":[0,0,0,0,0,0,0,0,0,0,0,0,0,0,0],"sum_hessian":[4.076E3,2.942E3,1.134E3,4.24E2,2.518E3,9.2E2,2.14E2,5E0,4.19E2,2.226E3,2.92E2,6.39E2,2.81E2,2E0,2.12E2],"tree_param":{"num_deleted":"0","num_feature":"27","num_nodes":"15","size_leaf_vector":"1"}},{"base_weights":[1.13302565E-4,-1.01827696E-1,2.6444128E-1,-3.8324246E-1,-5.430761E-2,1.9162236E-1,5.751472E-1,4.8555627E-2,-3.947414E-2,2.5309602E-2,-7.332743E-3,7.757049E-3,2.6301963E-2,4.021677E-2,7.165988E-2],"categories":[],"categories_nodes":[],"categories_segments":[],"categories_sizes":[],"default_left":[0,0,0,0,0,0,0,0,0,0,0,0,0,0,0],"id":4,"left_children":[1,3,5,7,9,11,13,-1,-1,-1,-1,-1,-1,-1,-1],"loss_changes":[1.09885185E2,3.933549E1,2.5569473E1,4.4375267E0,1.474655E1,7.479294E0,4.9724655E0,0E0,0E0,0E0,0E0,0E0,0E0,0E0,0E0],"parents":[2147483647,0,0,1,1,2,2,3,3,4,4,5,5,6,6],"right_children":[2,4,6,8,10,12,14,-1,-1,-1,-1,-1,-1,-1,-1],"split_conditions":[2E0,1E0,2E0,5E-1,1E0,4.71E0,3E0,4.8555627E-2,-3.947414E-2,2.5309602E-2,-7.332743E-3,7.757049E-3,2.6301963E-2,4.021677E-2,7.165988E-2],"split_indices":[7,12,6,6,4,10,7,0,0,0,0,0,0,0,0],"split_type":[0,0,0,0,0,0,0,0,0,0,0,0,0,0,0],"sum_hessian":[4.076E3,2.942E3,1.134E3,4.24E2,2.518E3,9.2E2,2.14E2,5E0,4.19E2,1.46E2,2.372E3,3.55E2,5.65E2,9.8E1,1.16E2],"tree_param":{"num_deleted":"0","num_feature":"27","num_nodes":"15","size_leaf_vector":"1"}},{"base_weights":[1.4441978E-4,-9.1635704E-2,2.381257E-1,-3.4489697E-1,-4.8869655E-2,1.14431426E-1,3.9725113E-1,-5.4556925E-2,-2.9163053E-2,-2.3598156E-3,-2.4078352E-2,-7.2863715E-4,1.850758E-2,2.954928E-2,5.652597E-2],"categories":[],"categories_nodes":[],"categories_segments":[],"categories_sizes":[],"default_left":[0,0,0,0,0,0,0,0,0,0,0,0,0,0,0],"id":5,"left_children":[1,3,5,7,9,11,13,-1,-1,-1,-1,-1,-1,-1,-1],"loss_changes":[8.907146E1,3.1858725E1,2.2294632E1,4.3837624E0,1.2211345E1,5.5045013E0,8.312721E0,0E0,0E0,0E0,0E0,0E0,0E0,0E0,0E0],"parents":[2147483647,0,0,1,1,2,2,3,3,4,4,5,5,6,6],"right_children":[2,4,6,8,10,12,14,-1,-1,-1,-1,-1,-1,-1,-1],"split_conditions":[2E0,1E0,1.5E0,4.07E0,8E0,4.67E0,3E0,-5.4556925E-2,-2.9163053E-2,-2.3598156E-3,-2.4078352E-2,-7.2863715E-4,1.850758E-2,2.954928E-2,5.652597E-2],"split_indices":[7,12,6,10,0,10,7,0,0,0,0,0,0,0,0],"split_type":[0,0,0,0,0,0,0,0,0,0,0,0,0,0,0],"sum_hessian":[4.076E3,2.942E3,1.134E3,4.24E2,2.518E3,6.39E2,4.95E2,8.7E1,3.37E2,2.226E3,2.92E2,2.35E2,4.04E2,3.1E2,1.85E2],"tree_param":{"num_deleted":"0","num_feature":"27","num_nodes":"15","size_leaf_vector":"1"}},{"base_weights":[1.2845562E-4,-8.250955E-2,2.1440467E-1,-3.106044E-1,-4.3993138E-2,1.0301611E-1,3.5769957E-1,-2.622417E-2,-5.067225E-2,-1.2224196E-2,1.7737475E-3,6.8037206E-4,1.7641565E-2,3.105167E-2,6.603985E-2],"categories":[],"categories_nodes":[],"categories_segments":[],"categories_sizes":[],"default_left":[0,0,0,0,0,0,0,0,0,0,0,0,0,0,0],"id":6,"left_children":[1,3,5,7,9,11,13,-1,-1,-1,-1,-1,-1,-1,-1],"loss_changes":[7.221059E1,2.584175E1,1.807935E1,3.898159E0,1.2169813E1,4.518445E0,6.8789177E0,0E0,0E0,0E0,0E0,0E0,0E0,0E0,0E0],"parents":[2147483647,0,0,1,1,2,2,3,3,4,4,5,5,6,6],"right_children":[2,4,6,8,10,12,14,-1,-1,-1,-1,-1,-1,-1,-1],"split_conditions":[2E0,1E0,1.5E0,3E0,4.77E0,4.71E0,9E0,-2.622417E-2,-5.067225E-2,-1.2224196E-2,1.7737475E-3,6.8037206E-4,1.7641565E-2,3.105167E-2,6.603985E-2],"split_indices":[7,12,6,0,10,10,5,0,0,0,0,0,0,0,0],"split_type":[0,0,0,0,0,0,0,0,0,0,0,0,0,0,0],"sum_hessian":[4.076E3,2.942E3,1.134E3,4.24E2,2.518E3,6.39E2,4.95E2,3.42E2,8.2E1,1.11E3,1.408E3,2.77E2,3.62E2,4.3E2,6.5E1],"tree_param":{"num_deleted":"0","num_feature":"27","num_nodes":"15","size_leaf_vector":"1"}},{"base_weights":[1.2245488E-4,-7.4288316E-2,1.9306588E-1,-2.7972496E-1,-3.959802E-2,1.2377476E-1,4.0123641E-1,-4.494122E-2,-2.2749634E-2,2.3654936E-2,-5.668781E-3,6.0244496E-3,2.3429938E-2,1.4779632E-2,4.9865782E-2],"categories":[],"categories_nodes":[],"categories_segments":[],"categories_sizes":[],"default_left":[0,0,0,0,0,0,0,0,0,0,0,0,0,0,0],"id":7,"left_children":[1,3,5,7,9,11,13,-1,-1,-1,-1,-1,-1,-1,-1],"loss_changes":[5.854811E1,2.0962679E1,1.6321999E1,3.6643372E0,1.1901327E1,5.975359E0,6.9137115E0,0E0,0E0,0E0,0E0,0E0,0E0,0E0,0E0],"parents":[2147483647,0,0,1,1,2,2,3,3,4,4,5,5,6,6],"right_children":[2,4,6,8,10,12,14,-1,-1,-1,-1,-1,-1,-1,-1],"split_conditions":[2E0,1E0,3E0,4.21E0,1E0,1.5E0,4.64E0,-4.494122E-2,-2.2749634E-2,2.3654936E-2,-5.668781E-3,6.0244496E-3,2.3429938E-2,1.4779632E-2,4.9865782E-2],"split_indices":[7,12,7,10,4,6,10,0,0,0,0,0,0,0,0],"split_type":[0,0,0,0,0,0,0,0,0,0,0,0,0,0,0],"sum_hessian":[4.076E3,2.942E3,1.134E3,4.24E2,2.518E3,8.52E2,2.82E2,9.8E1,3.26E2,1.46E2,2.372E3,5.42E2,3.1E2,7.9E1,2.03E2],"tree_param":{"num_deleted":"0","num_feature":"27","num_nodes":"15","size_leaf_vector":"1"}},{"base_weights":[1.21025994E-4,-1.1597581E-1,1.04230136E-1,-2.8802368E-1,-7.286081E-2,6.3245565E-2,3.7884977E-1,5.1428147E-2,-2.9990245E-2,2.0834735E-2,-9.672119E-3,2.5812653E-3,1.777619E-2,3.027816E-2,6.34849E-2],"categories":[],"categories_nodes":[],"categories_segments":[],"categories_sizes":[],"default_left":[0,0,0,0,0,0,0,0,0,0,0,0,0,0,0],"id":8,"left_children":[1,3,5,7,9,11,13,-1,-1,-1,-1,-1,-1,-1,-1],"loss_changes":[4.928972E1,1.4280621E1,2.4174648E1,3.8329659E0,1.0373274E1,8.020077E0,5.24086E0,0E0,0E0,0E0,0E0,0E0,0E0,0E0,0E0],"parents":[2147483647,0,0,1,1,2,2,3,3,4,4,5,5,6,6],"right_children":[2,4,6,8,10,12,14,-1,-1,-1,-1,-1,-1,-1,-1],"split_conditions":[4E0,1E0,3E0,5E-1,1E0,1.5E0,4E0,5.1428147E-2,-2.9990245E-2,2.0834735E-2,-9.672119E-3,2.5812653E-3,1.777619E-2,3.027816E-2,6.34849E-2],"split_indices":[5,12,7,6,4,6,7,0,0,0,0,0,0,0,0],"split_type":[0,0,0,0,0,0,0,0,0,0,0,0,0,0,0],"sum_hessian":[4.076E3,1.927E3,2.149E3,3.85E2,1.542E3,1.871E3,2.78E2,5E0,3.8E2,1.2E2,1.422E3,1.411E3,4.6E2,2.16E2,6.2E1],"tree_param":{"num_deleted":"0","num_feature":"27","num_nodes":"15","size_leaf_vector":"1"}},{"base_weights":[1.4498808E-4,-1.0436131E-1,9.3860336E-2,-2.5916582E-1,-6.556746E-2,5.693204E-2,3.4130087E-1,4.714245E-2,-2.6999095E-2,-3.5073876E-3,-2.5684996E-2,1.2681618E-3,1.5258721E-2,1.2695854E-2,4.223771E-2],"categories":[],"categories_nodes":[],"categories_segments":[],"categories_sizes":[],"default_left":[0,0,0,0,0,0,0,0,0,0,0,0,0,0,0],"id":9,"left_children":[1,3,5,7,9,11,13,-1,-1,-1,-1,-1,-1,-1,-1],"loss_changes":[3.99393E1,1.1561539E1,1.9626322E1,3.1800537E0,8.99114E0,7.9218316E0,4.794857E0,0E0,0E0,0E0,0E0,0E0,0E0,0E0,0E0],"parents":[2147483647,0,0,1,1,2,2,3,3,4,4,5,5,6,6],"right_children":[2,4,6,8,10,12,14,-1,-1,-1,-1,-1,-1,-1,-1],"split_conditions":[4E0,1E0,3E0,5E-1,8E0,1E0,4.64E0,4.714245E-2,-2.6999095E-2,-3.5073876E-3,-2.5684996E-2,1.2681618E-3,1.5258721E-2,1.2695854E-2,4.223771E-2],"split_indices":[5,12,7,6,0,17,10,0,0,0,0,0,0,0,0],"split_type":[0,0,0,0,0,0,0,0,0,0,0,0,0,0,0],"sum_hessian":[4.076E3,1.927E3,2.149E3,3.85E2,1.542E3,1.871E3,2.78E2,5E0,3.8E2,1.331E3,2.11E2,1.28E3,5.91E2,7.7E1,2.01E2],"tree_param":{"num_deleted":"0","num_feature":"27","num_nodes":"15","size_leaf_vector":"1"}},{"base_weights":[1.4577193E-4,-5.6630585E-2,1.4736398E-1,-1.3161764E-1,-4.9025443E-4,1.0040954E-1,3.4781832E-1,2.1626256E-2,-1.5760386E-2,-6.614049E-3,6.042832E-3,2.3357315E-2,6.075E-3,-4.9120124E-2,3.660519E-2],"categories":[],"categories_nodes":[],"categories_segments":[],"categories_sizes":[],"default_left":[0,0,0,0,0,0,0,0,0,0,0,0,0,0,0],"id":10,"left_children":[1,3,5,7,9,11,13,-1,-1,-1,-1,-1,-1,-1,-1],"loss_changes":[3.4086002E1,1.238937E1,1.0647949E1,1.1424601E1,6.738849E0,4.849802E0,3.4689407E0,0E0,0E0,0E0,0E0,0E0,0E0,0E0,0E0],"parents":[2147483647,0,0,1,1,2,2,3,3,4,4,5,5,6,6],"right_children":[2,4,6,8,10,12,14,-1,-1,-1,-1,-1,-1,-1,-1],"split_conditions":[2E0,4.75E0,2E0,1E0,1E0,9.9E1,1E0,2.1626256E-2,-1.5760386E-2,-6.614049E-3,6.042832E-3,2.3357315E-2,6.075E-3,-4.9120124E-2,3.660519E-2],"split_indices":[7,10,6,4,11,1,12,0,0,0,0,0,0,0,0],"split_type":[0,0,0,0,0,0,0,0,0,0,0,0,0,0,0],"sum_hessian":[4.076E3,2.942E3,1.134E3,1.259E3,1.683E3,9.2E2,2.14E2,8.7E1,1.172E3,8.1E2,8.73E2,2.1E2,7.1E2,4E0,2.1E2],"tree_param":{"num_deleted":"0","num_feature":"27","num_nodes":"15","size_leaf_vector":"1"}},{"base_weights":[1.3665683E-4,-8.857291E-2,7.968639E-2,1.5380114E-1,-1.0749063E-1,4.883198E-2,2.864239E-1,3.9078183E-3,5.397699E-2,-3.4923524E-2,-8.156033E-3,1.797174E-2,1.9352966E-3,2.3912506E-2,6.2022068E-2],"categories":[],"categories_nodes":[],"categories_segments":[],"categories_sizes":[],"default_left":[0,0,0,0,0,0,0,0,0,0,0,0,0,0,0],"id":11,"left_children":[1,3,5,7,9,11,13,-1,-1,-1,-1,-1,-1,-1,-1],"loss_changes":[2.8777723E1,8.856728E0,1.3700356E1,6.178034E0,1.1185883E1,7.2193947E0,4.2565956E0,0E0,0E0,0E0,0E0,0E0,0E0,0E0,0E0],"parents":[2147483647,0,0,1,1,2,2,3,3,4,4,5,5,6,6],"right_children":[2,4,6,8,10,12,14,-1,-1,-1,-1,-1,-1,-1,-1],"split_conditions":[4E0,1E0,3E0,1E0,4.21E0,9.7E1,3E0,3.9078183E-3,5.397699E-2,-3.4923524E-2,-8.156033E-3,1.797174E-2,1.9352966E-3,2.3912506E-2,6.2022068E-2],"split_indices":[5,4,7,17,10,1,6,0,0,0,0,0,0,0,0],"split_type":[0,0,0,0,0,0,0,0,0,0,0,0,0,0,0],"sum_hessian":[4.076E3,1.927E3,2.149E3,1.39E2,1.788E3,1.871E3,2.78E2,1.08E2,3.1E1,1.72E2,1.616E3,3.43E2,1.528E3,2.45E2,3.3E1],"tree_param":{"num_deleted":"0","num_feature":"27","num_nodes":"15","size_leaf_vector":"1"}},{"base_weights":[1.5245748E-4,-4.710225E-2,1.2268149E-1,-3.2358747E-2,-3.1208628E-1,8.2903735E-2,2.9250768E-1,-1.706389E-2,-9.1345154E-4,-9.4378956E-2,-2.6668135E-2,3.3087737E-3,1.6913358E-2,-6.995299E-2,3.0510677E-2],"categories":[],"categories_nodes":[],"categories_segments":[],"categories_sizes":[],"default_left":[0,0,0,0,0,0,0,0,0,0,0,0,0,0,0],"id":12,"left_children":[1,3,5,7,9,11,13,-1,-1,-1,-1,-1,-1,-1,-1],"loss_changes":[2.3611908E1,1.1487591E1,7.6430187E0,8.955175E0,4.194087E0,3.9506745E0,2.9006634E0,0E0,0E0,0E0,0E0,0E0,0E0,0E0,0E0],"parents":[2147483647,0,0,1,1,2,2,3,3,4,4,5,5,6,6],"right_children":[2,4,6,8,10,12,14,-1,-1,-1,-1,-1,-1,-1,-1],"split_conditions":[2E0,1E0,2E0,1E0,2E0,1E0,2E0,-1.706389E-2,-9.1345154E-4,-9.4378956E-2,-2.6668135E-2,3.3087737E-3,1.6913358E-2,-6.995299E-2,3.0510677E-2],"split_indices":[7,21,6,12,5,3,5,0,0,0,0,0,0,0,0],"split_type":[0,0,0,0,0,0,0,0,0,0,0,0,0,0,0],"sum_hessian":[4.076E3,2.942E3,1.134E3,2.788E3,1.54E2,9.2E2,2.14E2,4E2,2.388E3,9E0,1.45E2,5.84E2,3.36E2,2E0,2.12E2],"tree_param":{"num_deleted":"0","num_feature":"27","num_nodes":"15","size_leaf_vector":"1"}},{"base_weights":[9.849804E-5,-7.44005E-2,6.6905E-2,1.4277641E-1,-9.135431E-2,2.0451711E-2,1.7574582E-1,3.9564907E-3,4.8987888E-2,-1.592302E-2,-1.2383359E-3,1.36447875E-2,-1.1530705E-3,1.124848E-2,2.7873216E-2],"categories":[],"categories_nodes":[],"categories_segments":[],"categories_sizes":[],"default_left":[0,0,0,0,0,0,0,0,0,0,0,0,0,0,0],"id":13,"left_children":[1,3,5,7,9,11,13,-1,-1,-1,-1,-1,-1,-1,-1],"loss_changes":[2.0296276E1,7.1118946E0,1.0866835E1,4.996114E0,9.587466E0,5.596008E0,4.1578045E0,0E0,0E0,0E0,0E0,0E0,0E0,0E0,0E0],"parents":[2147483647,0,0,1,1,2,2,3,3,4,4,5,5,6,6],"right_children":[2,4,6,8,10,12,14,-1,-1,-1,-1,-1,-1,-1,-1],"split_conditions":[4E0,1E0,1.5E0,1E0,4.82E0,9.9E1,1E0,3.9564907E-3,4.8987888E-2,-1.592302E-2,-1.2383359E-3,1.36447875E-2,-1.1530705E-3,1.124848E-2,2.7873216E-2],"split_indices":[5,4,6,17,10,1,17,0,0,0,0,0,0,0,0],"split_type":[0,0,0,0,0,0,0,0,0,0,0,0,0,0,0],"sum_hessian":[4.076E3,1.927E3,2.149E3,1.39E2,1.788E3,1.507E3,6.42E2,1.08E2,3.1E1,9.61E2,8.27E2,3.25E2,1.182E3,3.99E2,2.43E2],"tree_param":{"num_deleted":"0","num_feature":"27","num_nodes":"15","size_leaf_vector":"1"}},{"base_weights":[1.1007687E-4,-3.395126E-2,1.2124653E-1,-1.4766855E-2,-1.8341103E-1,5.1387876E-2,2.319431E-1,-5.352119E-3,8.604291E-3,-2.334782E-2,1.8781149E-4,-4.2589777E-3,2.0027546E-2,2.194506E-1,2.1989362E-2],"categories":[],"categories_nodes":[],"categories_segments":[],"categories_sizes":[],"default_left":[0,0,0,0,0,0,0,0,0,0,0,0,0,0,0],"id":14,"left_children":[1,3,5,7,9,11,13,-1,-1,-1,-1,-1,-1,-1,-1],"loss_changes":[1.6826101E1,9.123897E0,6.909218E0,1.1029638E1,3.358676E0,7.7041883E0,7.6995983E0,0E0,0E0,0E0,0E0,0E0,0E0,0E0,0E0],"parents":[2147483647,0,0,1,1,2,2,3,3,4,4,5,5,6,6],"right_children":[2,4,6,8,10,12,14,-1,-1,-1,-1,-1,-1,-1,-1],"split_conditions":[5E0,8E0,1E0,4.91E0,1.5E0,2E0,3.7E0,-5.352119E-3,8.604291E-3,-2.334782E-2,1.8781149E-4,-4.2589777E-3,2.0027546E-2,2.194506E-1,2.1989362E-2],"split_indices":[5,0,3,10,6,0,10,0,0,0,0,0,0,0,0],"split_type":[0,0,0,0,0,0,0,0,0,0,0,0,0,0,0],"sum_hessian":[4.076E3,3.182E3,8.94E2,2.821E3,3.61E2,5.49E2,3.45E2,2.038E3,7.83E2,2.84E2,7.7E1,3.37E2,2.12E2,1E0,3.44E2],"tree_param":{"num_deleted":"0","num_feature":"27","num_nodes":"15","size_leaf_vector":"1"}},{"base_weights":[1.5718819E-4,-6.319788E-2,5.6970406E-2,-1.8051447E-1,-3.380877E-2,4.588217E-2,4.2356196E-1,-1.363709E-2,-3.5589095E-2,-5.745652E-3,1.4557644E-2,-4.1369474E-3,9.543444E-3,4.8008855E-2,-3.2816418E-2],"categories":[],"categories_nodes":[],"categories_segments":[],"categories_sizes":[],"default_left":[0,0,0,0,0,0,0,0,0,0,0,0,0,0,0],"id":15,"left_children":[1,3,5,7,9,11,13,-1,-1,-1,-1,-1,-1,-1,-1],"loss_changes":[1.4678376E1,6.641313E0,8.720001E0,2.9397802E0,6.5538564E0,9.03145E0,2.8345766E0,0E0,0E0,0E0,0E0,0E0,0E0,0E0,0E0],"parents":[2147483647,0,0,1,1,2,2,3,3,4,4,5,5,6,6],"right_children":[2,4,6,8,10,12,14,-1,-1,-1,-1,-1,-1,-1,-1],"split_conditions":[4E0,1E0,4E0,3E0,1E0,4.71E0,2.1E1,-1.363709E-2,-3.5589095E-2,-5.745652E-3,1.4557644E-2,-4.1369474E-3,9.543444E-3,4.8008855E-2,-3.2816418E-2],"split_indices":[5,12,7,0,16,10,0,0,0,0,0,0,0,0,0],"split_type":[0,0,0,0,0,0,0,0,0,0,0,0,0,0,0],"sum_hessian":[4.076E3,1.927E3,2.149E3,3.85E2,1.542E3,2.087E3,6.2E1,3.09E2,7.6E1,1.363E3,1.79E2,7.56E2,1.331E3,5.8E1,4E0],"tree_param":{"num_deleted":"0","num_feature":"27","num_nodes":"15","size_leaf_vector":"1"}},{"base_weights":[1.367032E-4,-2.482182E-2,1.24416776E-1,-4.2544294E-2,1.17211856E-1,5.0259206E-2,2.2879349E-1,-2.1304112E-2,-2.4147301E-3,5.9009653E-2,8.482077E-3,2.8932313E-2,-2.9330996E-3,2.031695E-2,4.9685396E-2],"categories":[],"categories_nodes":[],"categories_segments":[],"categories_sizes":[],"default_left":[0,0,0,0,0,0,0,0,0,0,0,0,0,0,0],"id":16,"left_children":[1,3,5,7,9,11,13,-1,-1,-1,-1,-1,-1,-1,-1],"loss_changes":[1.2649319E1,8.553358E0,5.2674026E0,9.467476E0,5.7245507E0,7.6193447E0,1.8429193E0,0E0,0E0,0E0,0E0,0E0,0E0,0E0,0E0],"parents":[2147483647,0,0,1,1,2,2,3,3,4,4,5,5,6,6],"right_children":[2,4,6,8,10,12,14,-1,-1,-1,-1,-1,-1,-1,-1],"split_conditions":[6E0,1E0,4.82E0,4.31E0,1E0,9.9E1,3E0,-2.1304112E-2,-2.4147301E-3,5.9009653E-2,8.482077E-3,2.8932313E-2,-2.9330996E-3,2.031695E-2,4.9685396E-2],"split_indices":[5,16,10,10,4,1,6,0,0,0,0,0,0,0,0],"split_type":[0,0,0,0,0,0,0,0,0,0,0,0,0,0,0],"sum_hessian":[4.076E3,3.395E3,6.81E2,3.019E3,3.76E2,3.99E2,2.82E2,2.93E2,2.726E3,2.3E1,3.53E2,9.9E1,3E2,2.59E2,2.3E1],"tree_param":{"num_deleted":"0","num_feature":"27","num_nodes":"15","size_leaf_vector":"1"}},{"base_weights":[1.573003E-4,-3.2030717E-2,8.361913E-2,-1.9249108E-2,-2.6181057E-1,3.0843688E-2,1.733896E-1,7.0899585E-3,-4.585789E-3,-8.1438735E-2,-2.2216963E-2,-2.0862059E-3,1.3220479E-2,1.01185525E-2,2.5539232E-2],"categories":[],"categories_nodes":[],"categories_segments":[],"categories_sizes":[],"default_left":[0,0,0,0,0,0,0,0,0,0,0,0,0,0,0],"id":17,"left_children":[1,3,5,7,9,11,13,-1,-1,-1,-1,-1,-1,-1,-1],"loss_changes":[1.095542E1,8.638422E0,5.371916E0,6.6933565E0,3.2142906E0,3.7552793E0,2.460947E0,0E0,0E0,0E0,0E0,0E0,0E0,0E0,0E0],"parents":[2147483647,0,0,1,1,2,2,3,3,4,4,5,5,6,6],"right_children":[2,4,6,8,10,12,14,-1,-1,-1,-1,-1,-1,-1,-1],"split_conditions":[2E0,1E0,1E0,9.8E1,2E0,4.87E0,1E2,7.0899585E-3,-4.585789E-3,-8.1438735E-2,-2.2216963E-2,-2.0862059E-3,1.3220479E-2,1.01185525E-2,2.5539232E-2],"split_indices":[7,21,17,1,5,10,2,0,0,0,0,0,0,0,0],"split_type":[0,0,0,0,0,0,0,0,0,0,0,0,0,0,0],"sum_hessian":[4.076E3,2.942E3,1.134E3,2.788E3,1.54E2,7.15E2,4.19E2,6.35E2,2.153E3,9E0,1.45E2,4.74E2,2.41E2,2.24E2,1.95E2],"tree_param":{"num_deleted":"0","num_feature":"27","num_nodes":"15","size_leaf_vector":"1"}},{"base_weights":[1.2818698E-4,-5.1225334E-2,4.6179097E-2,-3.0996252E-2,-1.9612622E-1,7.325567E-3,1.23984456E-1,6.967123E-3,-6.3949237E-3,-3.1656973E-2,-1.2367554E-2,-1.9212001E-3,1.4155011E-2,2.8707284E-2,8.933914E-3],"categories":[],"categories_nodes":[],"categories_segments":[],"categories_sizes":[],"default_left":[0,0,0,0,0,0,0,0,0,0,0,0,0,0,0],"id":18,"left_children":[1,3,5,7,9,11,13,-1,-1,-1,-1,-1,-1,-1,-1],"loss_changes":[9.643967E0,5.645297E0,6.498569E0,5.620634E0,2.020236E0,5.1141796E0,4.019932E0,0E0,0E0,0E0,0E0,0E0,0E0,0E0,0E0],"parents":[2147483647,0,0,1,1,2,2,3,3,4,4,5,5,6,6],"right_children":[2,4,6,8,10,12,14,-1,-1,-1,-1,-1,-1,-1,-1],"split_conditions":[4E0,8E0,1E0,9.8E1,4.83E0,1E0,9.7E1,6.967123E-3,-6.3949237E-3,-3.1656973E-2,-1.2367554E-2,-1.9212001E-3,1.4155011E-2,2.8707284E-2,8.933914E-3],"split_indices":[5,0,17,1,10,16,1,0,0,0,0,0,0,0,0],"split_type":[0,0,0,0,0,0,0,0,0,0,0,0,0,0,0],"sum_hessian":[4.076E3,1.927E3,2.149E3,1.692E3,2.35E2,1.434E3,7.15E2,4.17E2,1.275E3,8.7E1,1.48E2,1.198E3,2.36E2,1.24E2,5.91E2],"tree_param":{"num_deleted":"0","num_feature":"27","num_nodes":"15","size_leaf_vector":"1"}},{"base_weights":[1.16909025E-4,-5.008605E-2,4.3141432E-2,6.1793465E-2,-9.573761E-2,2.0175345E-2,1.6715305E-1,-1.7354771E-2,1.8189382E-2,-1.0295696E-2,4.1047614E-2,3.3309467E-3,-1.8058503E-2,1.4472643E-2,4.2426746E-2],"categories":[],"categories_nodes":[],"categories_segments":[],"categories_sizes":[],"default_left":[0,0,0,0,0,0,0,0,0,0,0,0,0,0,0],"id":19,"left_children":[1,3,5,7,9,11,13,-1,-1,-1,-1,-1,-1,-1,-1],"loss_changes":[8.808311E0,9.618181E0,6.250971E0,1.5464016E1,4.9283724E0,4.894664E0,1.9164076E0,0E0,0E0,0E0,0E0,0E0,0E0,0E0,0E0],"parents":[2147483647,0,0,1,1,2,2,3,3,4,4,5,5,6,6],"right_children":[2,4,6,8,10,12,14,-1,-1,-1,-1,-1,-1,-1,-1],"split_conditions":[4.77E0,9.9E1,6E0,1E0,4E0,1E0,3E0,-1.7354771E-2,1.8189382E-2,-1.0295696E-2,4.1047614E-2,3.3309467E-3,-1.8058503E-2,1.4472643E-2,4.2426746E-2],"split_indices":[10,1,5,11,7,25,6,0,0,0,0,0,0,0,0],"split_type":[0,0,0,0,0,0,0,0,0,0,0,0,0,0,0],"sum_hessian":[4.076E3,1.881E3,2.195E3,5.45E2,1.336E3,1.853E3,3.42E2,1.84E2,3.61E2,1.318E3,1.8E1,1.74E3,1.13E2,3.16E2,2.6E1],"tree_param":{"num_deleted":"0","num_feature":"27","num_nodes":"15","size_leaf_vector":"1"}},{"base_weights":[1.2327498E-4,-1.2567927E-1,1.56103615E-2,-1.7366706E-1,4.6988185E-2,-1.2424311E-2,1.1112705E-1,6.8764515E-2,-1.8561184E-2,3.6050852E-2,-7.1234563E-3,5.2919384E-4,-1.7432004E-2,5.083878E-3,2.1301752E-2],"categories":[],"categories_nodes":[],"categories_segments":[],"categories_sizes":[],"default_left":[0,0,0,0,0,0,0,0,0,0,0,0,0,0,0],"id":20,"left_children":[1,3,5,7,9,11,13,-1,-1,-1,-1,-1,-1,-1,-1],"loss_changes":[7.9452415E0,3.7119718E0,9.724396E0,3.7284985E0,3.658074E0,8.054787E0,5.0508375E0,0E0,0E0,0E0,0E0,0E0,0E0,0E0,0E0],"parents":[2147483647,0,0,1,1,2,2,3,3,4,4,5,5,6,6],"right_children":[2,4,6,8,10,12,14,-1,-1,-1,-1,-1,-1,-1,-1],"split_conditions":[1E0,1E0,1.5E0,5E-1,1.8E1,1.4E1,1E0,6.8764515E-2,-1.8561184E-2,3.6050852E-2,-7.1234563E-3,5.2919384E-4,-1.7432004E-2,5.083878E-3,2.1301752E-2],"split_indices":[12,3,6,6,9,0,17,0,0,0,0,0,0,0,0],"split_type":[0,0,0,0,0,0,0,0,0,0,0,0,0,0,0],"sum_hessian":[4.076E3,4.46E2,3.63E3,3.49E2,9.7E1,2.807E3,8.23E2,4E0,3.45E2,2.6E1,7.1E1,2.531E3,2.76E2,5.18E2,3.05E2],"tree_param":{"num_deleted":"0","num_feature":"27","num_nodes":"15","size_leaf_vector":"1"}},{"base_weights":[1.3262933E-4,1.0544116E-2,-1.7732392E-1,-1.6705167E-2,6.955691E-2,-7.048777E-2,-1.5219553E-1,7.5398977E-3,-4.530774E-3,9.2411535E-3,-1.083546E-2,-1.6305614E-2,3.4090575E-2],"categories":[],"categories_nodes":[],"categories_segments":[],"categories_sizes":[],"default_left":[0,0,0,0,0,0,0,0,0,0,0,0,0],"id":21,"left_children":[1,3,5,7,9,-1,11,-1,-1,-1,-1,-1,-1],"loss_changes":[7.53448E0,6.1953945E0,2.8887076E0,6.9477353E0,4.958458E0,0E0,1.2177048E0,0E0,0E0,0E0,0E0,0E0,0E0],"parents":[2147483647,0,0,1,1,2,2,3,3,4,4,6,6],"right_children":[2,4,6,8,10,-1,12,-1,-1,-1,-1,-1,-1],"split_conditions":[1E0,4.89E0,2E0,9.8E1,2.9E1,-7.048777E-2,2.5E0,7.5398977E-3,-4.530774E-3,9.2411535E-3,-1.083546E-2,-1.6305614E-2,3.4090575E-2],"split_indices":[21,10,5,1,0,0,6,0,0,0,0,0,0],"split_type":[0,0,0,0,0,0,0,0,0,0,0,0,0],"sum_hessian":[4.076E3,3.851E3,2.25E2,2.635E3,1.216E3,9E0,2.16E2,6.24E2,2.011E3,1.078E3,1.38E2,2.12E2,4E0],"tree_param":{"num_deleted":"0","num_feature":"27","num_nodes":"13","size_leaf_vector":"1"}},{"base_weights":[1.0688246E-4,-2.2798698E-1,7.4982513E-3,9.2572294E-2,-2.630818E-1,8.224873E-2,-1.30243795E-2,-2.2819689E-2,-6.414386E-2,-8.6020855E-3,1.8899534E-2,-1.43098505E-2,9.86808E-4],"categories":[],"categories_nodes":[],"categories_segments":[],"categories_sizes":[],"default_left":[0,0,0,0,0,0,0,0,0,0,0,0,0],"id":22,"left_children":[1,3,5,-1,7,9,11,-1,-1,-1,-1,-1,-1],"loss_changes":[6.875229E0,5.4261637E0,6.060673E0,0E0,1.5034933E0,1.5302096E1,9.232334E0,0E0,0E0,0E0,0E0,0E0,0E0],"parents":[2147483647,0,0,1,1,2,2,4,4,5,5,6,6],"right_children":[2,4,6,-1,8,10,12,-1,-1,-1,-1,-1,-1],"split_conditions":[2E0,5E-1,9.8E1,9.2572294E-2,1E0,1E0,4.5E0,-2.2819689E-2,-6.414386E-2,-8.6020855E-3,1.8899534E-2,-1.43098505E-2,9.86808E-4],"split_indices":[5,6,1,0,21,11,10,0,0,0,0,0,0],"split_type":[0,0,0,0,0,0,0,0,0,0,0,0,0],"sum_hessian":[4.076E3,1.27E2,3.949E3,3E0,1.24E2,8.5E2,3.099E3,1.15E2,9E0,3.3E2,5.2E2,4.63E2,2.636E3],"tree_param":{"num_deleted":"0","num_feature":"27","num_nodes":"13","size_leaf_vector":"1"}},{"base_weights":[9.6993965E-5,-1.7350618E-2,8.6976744E-2,-3.282252E-2,1.0663477E-1,6.4320736E-2,3.0856007E-1,-1.6595013E-2,-1.845789E-3,2.5763867E-2,3.3379418E-3,2.4427721E-2,3.1291891E-3,-1.803109E-2,3.82947E-2],"categories":[],"categories_nodes":[],"categories_segments":[],"categories_sizes":[],"default_left":[0,0,0,0,0,0,0,0,0,0,0,0,0,0,0],"id":23,"left_children":[1,3,5,7,9,11,13,-1,-1,-1,-1,-1,-1,-1,-1],"loss_changes":[6.181606E0,6.5180116E0,3.403926E0,5.7721696E0,4.161716E0,3.677484E0,2.3600821E0,0E0,0E0,0E0,0E0,0E0,0E0,0E0,0E0],"parents":[2147483647,0,0,1,1,2,2,3,3,4,4,5,5,6,6],"right_children":[2,4,6,8,10,12,14,-1,-1,-1,-1,-1,-1,-1,-1],"split_conditions":[6E0,1E0,4E0,4.31E0,1.4E1,9.5E1,9.3E1,-1.6595013E-2,-1.845789E-3,2.5763867E-2,3.3379418E-3,2.4427721E-2,3.1291891E-3,-1.803109E-2,3.82947E-2],"split_indices":[5,16,7,10,9,1,2,0,0,0,0,0,0,0,0],"split_type":[0,0,0,0,0,0,0,0,0,0,0,0,0,0,0],"sum_hessian":[4.076E3,3.395E3,6.81E2,3.019E3,3.76E2,6.19E2,6.2E1,2.93E2,2.726E3,1.22E2,2.54E2,9.5E1,5.24E2,8E0,5.4E1],"tree_param":{"num_deleted":"0","num_feature":"27","num_nodes":"15","size_leaf_vector":"1"}},{"base_weights":[1.0168555E-4,-2.9692939E-2,4.8594676E-2,-4.6962555E-2,1.057298E-1,7.198906E-2,-1.0124938E-1,-8.790477E-3,1.6073257E-4,4.720221E-2,7.0374706E-3,1.6286772E-2,2.367307E-3,-8.229728E-3,-3.821161E-2],"categories":[],"categories_nodes":[],"categories_segments":[],"categories_sizes":[],"default_left":[0,0,0,0,0,0,0,0,0,0,0,0,0,0,0],"id":24,"left_children":[1,3,5,7,9,11,13,-1,-1,-1,-1,-1,-1,-1,-1],"loss_changes":[5.8920164E0,5.912519E0,5.4478393E0,4.4565005E0,3.670567E0,5.8931117E0,1.086386E0,0E0,0E0,0E0,0E0,0E0,0E0,0E0,0E0],"parents":[2147483647,0,0,1,1,2,2,3,3,4,4,5,5,6,6],"right_children":[2,4,6,8,10,12,14,-1,-1,-1,-1,-1,-1,-1,-1],"split_conditions":[1E0,1E0,8E0,1E2,1E0,3.4E1,1E0,-8.790477E-3,1.6073257E-4,4.720221E-2,7.0374706E-3,1.6286772E-2,2.367307E-3,-8.229728E-3,-3.821161E-2],"split_indices":[3,16,0,2,4,9,21,0,0,0,0,0,0,0,0],"split_type":[0,0,0,0,0,0,0,0,0,0,0,0,0,0,0],"sum_hessian":[4.076E3,2.525E3,1.551E3,2.24E3,2.85E2,1.342E3,2.09E2,1.215E3,1.025E3,2.4E1,2.61E2,4.65E2,8.77E2,1.97E2,1.2E1],"tree_param":{"num_deleted":"0","num_feature":"27","num_nodes":"15","size_leaf_vector":"1"}},{"base_weights":[9.584369E-5,-3.8667776E-2,3.485685E-2,-2.00771E-1,-2.7125366E-2,3.0709596E-3,9.851313E-2,8.642711E-2,-2.3324618E-2,5.0234175E-3,-4.953302E-3,-9.86376E-4,2.2521453E-2,2.290242E-2,7.078949E-3],"categories":[],"categories_nodes":[],"categories_segments":[],"categories_sizes":[],"default_left":[0,0,0,0,0,0,0,0,0,0,0,0,0,0,0],"id":25,"left_children":[1,3,5,7,9,11,13,-1,-1,-1,-1,-1,-1,-1,-1],"loss_changes":[5.4949517E0,3.6019611E0,4.349946E0,4.628779E0,3.124424E0,4.1254997E0,2.5744486E0,0E0,0E0,0E0,0E0,0E0,0E0,0E0,0E0],"parents":[2147483647,0,0,1,1,2,2,3,3,4,4,5,5,6,6],"right_children":[2,4,6,8,10,12,14,-1,-1,-1,-1,-1,-1,-1,-1],"split_conditions":[4E0,2E0,1E0,5E-1,9.8E1,1E0,9.7E1,8.642711E-2,-2.3324618E-2,5.0234175E-3,-4.953302E-3,-9.86376E-4,2.2521453E-2,2.290242E-2,7.078949E-3],"split_indices":[5,5,17,6,1,23,1,0,0,0,0,0,0,0,0],"split_type":[0,0,0,0,0,0,0,0,0,0,0,0,0,0,0],"sum_hessian":[4.076E3,1.927E3,2.149E3,1.27E2,1.8E3,1.434E3,7.15E2,3E0,1.24E2,4.04E2,1.396E3,1.356E3,7.8E1,1.24E2,5.91E2],"tree_param":{"num_deleted":"0","num_feature":"27","num_nodes":"15","size_leaf_vector":"1"}},{"base_weights":[1.14448E-4,8.776196E-3,-1.4751904E-1,1.8211314E-2,-1.4127241E-1,-5.5198467E-1,-1.2820026E-1,3.382336E-3,-8.640485E-3,-8.836482E-3,-2.9132355E-2,-2.3437422E-2,-6.0209047E-2,-4.508786E-3,-1.8454758E-2],"categories":[],"categories_nodes":[],"categories_segments":[],"categories_sizes":[],"default_left":[0,0,0,0,0,0,0,0,0,0,0,0,0,0,0],"id":26,"left_children":[1,3,5,7,9,11,13,-1,-1,-1,-1,-1,-1,-1,-1],"loss_changes":[5.214815E0,5.4559507E0,1.6951504E0,5.923534E0,1.7843137E0,1.8026829E-2,1.0079253E0,0E0,0E0,0E0,0E0,0E0,0E0,0E0,0E0],"parents":[2147483647,0,0,1,1,2,2,3,3,4,4,5,5,6,6],"right_children":[2,4,6,8,10,12,14,-1,-1,-1,-1,-1,-1,-1,-1],"split_conditions":[1E0,1E0,2E0,1E0,1.12E2,9.4E1,9.8E1,3.382336E-3,-8.640485E-3,-8.836482E-3,-2.9132355E-2,-2.3437422E-2,-6.0209047E-2,-4.508786E-3,-1.8454758E-2],"split_indices":[21,25,5,26,9,1,2,0,0,0,0,0,0,0,0],"split_type":[0,0,0,0,0,0,0,0,0,0,0,0,0,0,0],"sum_hessian":[4.076E3,3.851E3,2.25E2,3.624E3,2.27E2,9E0,2.16E2,3.154E3,4.7E2,1.69E2,5.8E1,2E0,7E0,8.8E1,1.28E2],"tree_param":{"num_deleted":"0","num_feature":"27","num_nodes":"15","size_leaf_vector":"1"}},{"base_weights":[6.63151E-5,-2.3264438E-2,5.0604153E-2,-9.100535E-2,5.1248716E-3,7.293203E-2,-8.3759464E-2,-1.30771445E-2,-1.2516066E-4,2.0678833E-2,-2.8887922E-3,-1.03541985E-2,9.23489E-3,-1.3452916E-2,4.426617E-3],"categories":[],"categories_nodes":[],"categories_segments":[],"categories_sizes":[],"default_left":[0,0,0,0,0,0,0,0,0,0,0,0,0,0,0],"id":27,"left_children":[1,3,5,7,9,11,13,-1,-1,-1,-1,-1,-1,-1,-1],"loss_changes":[4.8083096E0,5.3659644E0,3.870178E0,2.9408207E0,1.3497897E1,3.795927E0,1.2019223E0,0E0,0E0,0E0,0E0,0E0,0E0,0E0,0E0],"parents":[2147483647,0,0,1,1,2,2,3,3,4,4,5,5,6,6],"right_children":[2,4,6,8,10,12,14,-1,-1,-1,-1,-1,-1,-1,-1],"split_conditions":[4.89E0,1E0,8E0,1E0,9.5E1,1E0,1.5E0,-1.30771445E-2,-1.2516066E-4,2.0678833E-2,-2.8887922E-3,-1.03541985E-2,9.23489E-3,-1.3452916E-2,4.426617E-3],"split_indices":[10,11,0,17,1,12,6,0,0,0,0,0,0,0,0],"split_type":[0,0,0,0,0,0,0,0,0,0,0,0,0,0,0],"sum_hessian":[4.076E3,2.789E3,1.287E3,8.23E2,1.966E3,1.104E3,1.83E2,5.7E2,2.53E2,2.83E2,1.683E3,1.09E2,9.95E2,1.31E2,5.2E1],"tree_param":{"num_deleted":"0","num_feature":"27","num_nodes":"15","size_leaf_vector":"1"}},{"base_weights":[5.8261558E-5,-9.075746E-3,1.2254413E-1,-2.1508383E-2,9.061362E-2,-6.4448565E-2,1.3306405E-1,-3.3962266E-3,9.667694E-3,1.6302435E-2,-3.5988267E-3,5.3027254E-3,2.0207575E-2],"categories":[],"categories_nodes":[],"categories_segments":[],"categories_sizes":[],"default_left":[0,0,0,0,0,0,0,0,0,0,0,0,0],"id":28,"left_children":[1,3,5,7,9,-1,11,-1,-1,-1,-1,-1,-1],"loss_changes":[4.5624065E0,4.705478E0,2.3693085E0,4.970831E0,3.865315E0,0E0,1.5358577E0,0E0,0E0,0E0,0E0,0E0,0E0],"parents":[2147483647,0,0,1,1,2,2,3,3,4,4,6,6],"right_children":[2,4,6,8,10,-1,12,-1,-1,-1,-1,-1,-1],"split_conditions":[3E0,1E0,3E0,1E0,5.3E1,-6.4448565E-2,2E0,-3.3962266E-3,9.667694E-3,1.6302435E-2,-3.5988267E-3,5.3027254E-3,2.0207575E-2],"split_indices":[7,16,5,20,9,0,0,0,0,0,0,0,0],"split_type":[0,0,0,0,0,0,0,0,0,0,0,0,0],"sum_hessian":[4.076E3,3.794E3,2.82E2,3.374E3,4.2E2,3E0,2.79E2,3.053E3,3.21E2,2.67E2,1.53E2,1.3E2,1.49E2],"tree_param":{"num_deleted":"0","num_feature":"27","num_nodes":"13","size_leaf_vector":"1"}},{"base_weights":[4.7371555E-5,-7.435589E-2,1.52532235E-2,6.6525295E-2,-1.1859104E-1,-3.179811E-2,4.7243364E-2,-1.1359504E-2,2.0569827E-2,-1.3249027E-2,4.8895787E-2,-3.9782296E-3,2.9312972E-2,1.3881733E-2,2.0915652E-3],"categories":[],"categories_nodes":[],"categories_segments":[],"categories_sizes":[],"default_left":[0,0,0,0,0,0,0,0,0,0,0,0,0,0,0],"id":29,"left_children":[1,3,5,7,9,11,13,-1,-1,-1,-1,-1,-1,-1,-1],"loss_changes":[4.6137094E0,4.3203645E0,5.0980377E0,4.1846347E0,4.515009E0,3.5684237E0,4.8575377E0,0E0,0E0,0E0,0E0,0E0,0E0,0E0,0E0],"parents":[2147483647,0,0,1,1,2,2,3,3,4,4,5,5,6,6],"right_children":[2,4,6,8,10,12,14,-1,-1,-1,-1,-1,-1,-1,-1],"split_conditions":[4.5E0,9.6E1,1E0,9.6E1,4E0,2.5E0,9.9E1,-1.1359504E-2,2.0569827E-2,-1.3249027E-2,4.8895787E-2,-3.9782296E-3,2.9312972E-2,1.3881733E-2,2.0915652E-3],"split_indices":[10,1,11,2,7,6,1,0,0,0,0,0,0,0,0],"split_type":[0,0,0,0,0,0,0,0,0,0,0,0,0,0,0],"sum_hessian":[4.076E3,6.91E2,3.385E3,1.65E2,5.26E2,1.37E3,2.015E3,7.2E1,9.3E1,5.15E2,1.1E1,1.338E3,3.2E1,4.49E2,1.566E3],"tree_param":{"num_deleted":"0","num_feature":"27","num_nodes":"15","size_leaf_vector":"1"}},{"base_weights":[6.383103E-5,-2.5754903E-2,4.2085774E-2,-1.2667605E-1,-9.517807E-3,3.372575E-2,3.418455E-1,-7.153116E-3,-2.6576528E-2,-2.5678356E-3,1.1293265E-2,2.163354E-3,2.3633584E-2,1.9754615E-1,2.5381926E-2],"categories":[],"categories_nodes":[],"categories_segments":[],"categories_sizes":[],"default_left":[0,0,0,0,0,0,0,0,0,0,0,0,0,0,0],"id":30,"left_children":[1,3,5,7,9,11,13,-1,-1,-1,-1,-1,-1,-1,-1],"loss_changes":[4.4244385E0,4.138065E0,3.877781E0,2.6655111E0,4.3108926E0,3.6968434E0,5.5382376E0,0E0,0E0,0E0,0E0,0E0,0E0,0E0,0E0],"parents":[2147483647,0,0,1,1,2,2,3,3,4,4,5,5,6,6],"right_children":[2,4,6,8,10,12,14,-1,-1,-1,-1,-1,-1,-1,-1],"split_conditions":[1E0,1E0,6E0,1.5E0,1E0,1E0,3.7E0,-7.153116E-3,-2.6576528E-2,-2.5678356E-3,1.1293265E-2,2.163354E-3,2.3633584E-2,1.9754615E-1,2.5381926E-2],"split_indices":[3,12,8,6,16,23,10,0,0,0,0,0,0,0,0],"split_type":[0,0,0,0,0,0,0,0,0,0,0,0,0,0,0],"sum_hessian":[4.076E3,2.525E3,1.551E3,3.49E2,2.176E3,1.51E3,4.1E1,2.51E2,9.8E1,1.923E3,2.53E2,1.426E3,8.4E1,1E0,4E1],"tree_param":{"num_deleted":"0","num_feature":"27","num_nodes":"15","size_leaf_vector":"1"}},{"base_weights":[1.1225697E-4,-2.1230267E-2,4.500619E-2,-3.96276E-2,7.396582E-2,7.252697E-2,-1.2877765E-1,-6.1529647E-3,8.616969E-3,1.4182265E-2,-4.3278444E-3,3.7689425E-2,5.9615574E-3,-2.3035062E-2,1.1249168E-2],"categories":[],"categories_nodes":[],"categories_segments":[],"categories_sizes":[],"default_left":[0,0,0,0,0,0,0,0,0,0,0,0,0,0,0],"id":31,"left_children":[1,3,5,7,9,11,13,-1,-1,-1,-1,-1,-1,-1,-1],"loss_changes":[3.9073327E0,4.8436737E0,6.293764E0,6.3891425E0,3.570347E0,4.437861E0,4.437072E0,0E0,0E0,0E0,0E0,0E0,0E0,0E0,0E0],"parents":[2147483647,0,0,1,1,2,2,3,3,4,4,5,5,6,6],"right_children":[2,4,6,8,10,12,14,-1,-1,-1,-1,-1,-1,-1,-1],"split_conditions":[1E0,1E0,1E0,1E0,5.3E1,1E0,1E2,-6.1529647E-3,8.616969E-3,1.4182265E-2,-4.3278444E-3,3.7689425E-2,5.9615574E-3,-2.3035062E-2,1.1249168E-2],"split_indices":[17,16,13,20,9,4,2,0,0,0,0,0,0,0,0],"split_type":[0,0,0,0,0,0,0,0,0,0,0,0,0,0,0],"sum_hessian":[4.076E3,2.763E3,1.313E3,2.316E3,4.47E2,1.134E3,1.79E2,1.973E3,3.43E2,2.83E2,1.64E2,4.5E1,1.089E3,1.26E2,5.3E1],"tree_param":{"num_deleted":"0","num_feature":"27","num_nodes":"15","size_leaf_vector":"1"}},{"base_weights":[1.11986905E-4,1.0177145E-2,-9.561106E-2,-9.338786E-3,7.41179E-2,-1.3490158E-1,2.6989179E-2,5.9290505E-3,-2.9806753E-3,4.7948566E-4,1.3655916E-2,-2.5993085E-2,-1.03072645E-2,-1.7044625E-3,6.82998E-2],"categories":[],"categories_nodes":[],"categories_segments":[],"categories_sizes":[],"default_left":[0,0,0,0,0,0,0,0,0,0,0,0,0,0,0],"id":32,"left_children":[1,3,5,7,9,11,13,-1,-1,-1,-1,-1,-1,-1,-1],"loss_changes":[3.9290304E0,4.6053076E0,1.8726475E0,3.9742644E0,3.734943E0,1.1431952E0,2.7558649E0,0E0,0E0,0E0,0E0,0E0,0E0,0E0,0E0],"parents":[2147483647,0,0,1,1,2,2,3,3,4,4,5,5,6,6],"right_children":[2,4,6,8,10,12,14,-1,-1,-1,-1,-1,-1,-1,-1],"split_conditions":[1.4E1,4.93E0,1.5E0,9.8E1,1E0,8.1E1,4.5E1,5.9290505E-3,-2.9806753E-3,4.7948566E-4,1.3655916E-2,-2.5993085E-2,-1.03072645E-2,-1.7044625E-3,6.82998E-2],"split_indices":[0,10,6,1,3,2,0,0,0,0,0,0,0,0,0],"split_type":[0,0,0,0,0,0,0,0,0,0,0,0,0,0,0],"sum_hessian":[4.076E3,3.689E3,3.87E2,2.827E3,8.62E2,2.93E2,9.4E1,6.49E2,2.178E3,4.09E2,4.53E2,5.8E1,2.35E2,8.9E1,5E0],"tree_param":{"num_deleted":"0","num_feature":"27","num_nodes":"15","size_leaf_vector":"1"}},{"base_weights":[1.1239521E-4,-3.836315E-2,2.245203E-2,-1.0351685E-1,-4.826189E-3,1.14656664E-1,-6.0343156E-3,-8.311884E-3,-2.638113E-2,-1.3309721E-3,2.8711906E-2,1.6442766E-2,-2.25353E-3,1.4903092E-1,-8.3099486E-4],"categories":[],"categories_nodes":[],"categories_segments":[],"categories_sizes":[],"default_left":[0,0,0,0,0,0,0,0,0,0,0,0,0,0,0],"id":33,"left_children":[1,3,5,7,9,11,13,-1,-1,-1,-1,-1,-1,-1,-1],"loss_changes":[3.505164E0,3.2727165E0,6.7772503E0,1.642343E0,2.4557812E0,4.1620665E0,6.7272973E0,0E0,0E0,0E0,0E0,0E0,0E0,0E0,0E0],"parents":[2147483647,0,0,1,1,2,2,3,3,4,4,5,5,6,6],"right_children":[2,4,6,8,10,12,14,-1,-1,-1,-1,-1,-1,-1,-1],"split_conditions":[1E0,4.79E0,9.9E1,1E0,2.5E0,2E0,4.6E1,-8.311884E-3,-2.638113E-2,-1.3309721E-3,2.8711906E-2,1.6442766E-2,-2.25353E-3,1.4903092E-1,-8.3099486E-4],"split_indices":[11,10,1,26,6,0,2,0,0,0,0,0,0,0,0],"split_type":[0,0,0,0,0,0,0,0,0,0,0,0,0,0,0],"sum_hessian":[4.076E3,1.497E3,2.579E3,5.08E2,9.89E2,6.08E2,1.971E3,4.52E2,5.6E1,9.62E2,2.7E1,4.46E2,1.62E2,2E0,1.969E3],"tree_param":{"num_deleted":"0","num_feature":"27","num_nodes":"15","size_leaf_vector":"1"}},{"base_weights":[1.3920985E-4,-1.6043887E-1,5.3427173E-3,7.917529E-2,-1.8962549E-1,-1.5155479E-2,4.8812162E-2,-2.2594681E-2,5.441273E-3,-3.0089915E-3,9.041774E-3,3.260076E-2,3.7620545E-3],"categories":[],"categories_nodes":[],"categories_segments":[],"categories_sizes":[],"default_left":[0,0,0,0,0,0,0,0,0,0,0,0,0],"id":34,"left_children":[1,3,5,-1,7,9,11,-1,-1,-1,-1,-1,-1],"loss_changes":[3.4074728E0,3.7074187E0,3.5203683E0,0E0,1.1202683E0,4.236097E0,3.9152033E0,0E0,0E0,0E0,0E0,0E0,0E0],"parents":[2147483647,0,0,1,1,2,2,4,4,5,5,6,6],"right_children":[2,4,6,-1,8,10,12,-1,-1,-1,-1,-1,-1],"split_conditions":[2E0,5E-1,1E0,7.917529E-2,1E0,1E0,1E0,-2.2594681E-2,5.441273E-3,-3.0089915E-3,9.041774E-3,3.260076E-2,3.7620545E-3],"split_indices":[5,6,17,0,26,20,4,0,0,0,0,0,0],"split_type":[0,0,0,0,0,0,0,0,0,0,0,0,0],"sum_hessian":[4.076E3,1.27E2,3.949E3,3E0,1.24E2,2.684E3,1.265E3,1.08E2,1.6E1,2.352E3,3.32E2,4.8E1,1.217E3],"tree_param":{"num_deleted":"0","num_feature":"27","num_nodes":"13","size_leaf_vector":"1"}},{"base_weights":[1.5075714E-4,-6.277403E-2,1.3010711E-2,-7.207014E-2,4.2831242E-1,2.4550999E-2,-8.027465E-2,2.0098472E-3,-1.3024866E-2,1.5171635E-2,1.8737327E-1,-1.9768472E-3,5.7278043E-3,-2.8899817E-3,-1.627034E-2],"categories":[],"categories_nodes":[],"categories_segments":[],"categories_sizes":[],"default_left":[0,0,0,0,0,0,0,0,0,0,0,0,0,0,0],"id":35,"left_children":[1,3,5,7,9,11,13,-1,-1,-1,-1,-1,-1,-1,-1],"loss_changes":[3.2999654E0,3.1899798E0,3.6471348E0,3.6489363E0,4.9130917E0,4.3727736E0,1.5748646E0,0E0,0E0,0E0,0E0,0E0,0E0,0E0,0E0],"parents":[2147483647,0,0,1,1,2,2,3,3,4,4,5,5,6,6],"right_children":[2,4,6,8,10,12,14,-1,-1,-1,-1,-1,-1,-1,-1],"split_conditions":[4.5E0,4E0,1E0,1E2,1E0,1E0,4.2E1,2.0098472E-3,-1.3024866E-2,1.5171635E-2,1.8737327E-1,-1.9768472E-3,5.7278043E-3,-2.8899817E-3,-1.627034E-2],"split_indices":[10,7,26,1,3,11,9,0,0,0,0,0,0,0,0],"split_type":[0,0,0,0,0,0,0,0,0,0,0,0,0,0,0],"sum_hessian":[4.076E3,6.91E2,3.385E3,6.79E2,1.2E1,3.013E3,3.72E2,2.63E2,4.16E2,1.1E1,1E0,1.28E3,1.733E3,2.3E2,1.42E2],"tree_param":{"num_deleted":"0","num_feature":"27","num_nodes":"15","size_leaf_vector":"1"}},{"base_weights":[1.7892515E-4,6.804055E-3,-1.1274222E-1,1.4264063E-2,-1.1183337E-1,-4.3343523E-1,-9.744419E-2,2.3604152E-3,-8.971164E-3,-6.603883E-3,-2.4188826E-2,-4.748542E-2,-1.785063E-2,-2.06226E-3,-1.4968975E-2],"categories":[],"categories_nodes":[],"categories_segments":[],"categories_sizes":[],"default_left":[0,0,0,0,0,0,0,0,0,0,0,0,0,0,0],"id":36,"left_children":[1,3,5,7,9,11,13,-1,-1,-1,-1,-1,-1,-1,-1],"loss_changes":[3.0508413E0,3.4107542E0,1.0665135E0,3.5225081E0,1.341949E0,2.0824432E-2,8.678615E-1,0E0,0E0,0E0,0E0,0E0,0E0,0E0,0E0],"parents":[2147483647,0,0,1,1,2,2,3,3,4,4,5,5,6,6],"right_children":[2,4,6,8,10,12,14,-1,-1,-1,-1,-1,-1,-1,-1],"split_conditions":[1E0,1E0,2E0,1E0,1.12E2,2.2E1,9.8E1,2.3604152E-3,-8.971164E-3,-6.603883E-3,-2.4188826E-2,-4.748542E-2,-1.785063E-2,-2.06226E-3,-1.4968975E-2],"split_indices":[21,25,5,22,9,9,2,0,0,0,0,0,0,0,0],"split_type":[0,0,0,0,0,0,0,0,0,0,0,0,0,0,0],"sum_hessian":[4.076E3,3.851E3,2.25E2,3.624E3,2.27E2,9E0,2.16E2,3.326E3,2.98E2,1.69E2,5.8E1,7E0,2E0,8.8E1,1.28E2],"tree_param":{"num_deleted":"0","num_feature":"27","num_nodes":"15","size_leaf_vector":"1"}},{"base_weights":[1.3171097E-4,-2.8345384E-2,2.566832E-2,-2.5154267E-2,-3.8558498E-1,1.9932583E-2,2.1535957E-1,-8.869704E-4,-9.368501E-3,-5.0513893E-2,-8.221293E-3,-2.5659443E-3,4.5828405E-3,-1.7186258E-2,2.8307924E-2],"categories":[],"categories_nodes":[],"categories_segments":[],"categories_sizes":[],"default_left":[0,0,0,0,0,0,0,0,0,0,0,0,0,0,0],"id":37,"left_children":[1,3,5,7,9,11,13,-1,-1,-1,-1,-1,-1,-1,-1],"loss_changes":[2.9655561E0,2.188209E0,2.334948E0,2.1329477E0,5.7504964E-1,2.4663582E0,1.7006714E0,0E0,0E0,0E0,0E0,0E0,0E0,0E0,0E0],"parents":[2147483647,0,0,1,1,2,2,3,3,4,4,5,5,6,6],"right_children":[2,4,6,8,10,12,14,-1,-1,-1,-1,-1,-1,-1,-1],"split_conditions":[4E0,1E0,4E0,4E0,1E0,4.71E0,9.5E1,-8.869704E-4,-9.368501E-3,-5.0513893E-2,-8.221293E-3,-2.5659443E-3,4.5828405E-3,-1.7186258E-2,2.8307924E-2],"split_indices":[5,14,7,0,17,10,2,0,0,0,0,0,0,0,0],"split_type":[0,0,0,0,0,0,0,0,0,0,0,0,0,0,0],"sum_hessian":[4.076E3,1.927E3,2.149E3,1.911E3,1.6E1,2.087E3,6.2E1,1.545E3,3.66E2,1.1E1,5E0,7.56E2,1.331E3,9E0,5.3E1],"tree_param":{"num_deleted":"0","num_feature":"27","num_nodes":"15","size_leaf_vector":"1"}},{"base_weights":[1.0478388E-4,-2.0487906E-2,3.362091E-2,-5.1465E-2,1.4610617E-2,1.0412841E0,3.1648904E-2,8.1796694E-4,-9.213529E-3,1.2931853E-2,-1.1674415E-3,-2.0278573E-2,1.7647119E-1,2.0997105E-3,2.0837544E-2],"categories":[],"categories_nodes":[],"categories_segments":[],"categories_sizes":[],"default_left":[0,0,0,0,0,0,0,0,0,0,0,0,0,0,0],"id":38,"left_children":[1,3,5,7,9,11,13,-1,-1,-1,-1,-1,-1,-1,-1],"loss_changes":[2.8145819E0,2.7471461E0,3.0510528E0,3.2561307E0,3.574404E0,3.057842E0,2.9134307E0,0E0,0E0,0E0,0E0,0E0,0E0,0E0,0E0],"parents":[2147483647,0,0,1,1,2,2,3,3,4,4,5,5,6,6],"right_children":[2,4,6,8,10,12,14,-1,-1,-1,-1,-1,-1,-1,-1],"split_conditions":[1E0,1E2,3.7E0,1E2,9.8E1,9.9E1,1E0,8.1796694E-4,-9.213529E-3,1.2931853E-2,-1.1674415E-3,-2.0278573E-2,1.7647119E-1,2.0997105E-3,2.0837544E-2],"split_indices":[3,2,10,1,1,2,23,0,0,0,0,0,0,0,0],"split_type":[0,0,0,0,0,0,0,0,0,0,0,0,0,0,0],"sum_hessian":[4.076E3,2.525E3,1.551E3,1.341E3,1.184E3,2E0,1.549E3,5.44E2,7.97E2,2.2E2,9.64E2,1E0,1E0,1.462E3,8.7E1],"tree_param":{"num_deleted":"0","num_feature":"27","num_nodes":"15","size_leaf_vector":"1"}},{"base_weights":[1.3912136E-4,-1.3289941E-2,4.789841E-2,-3.645334E-3,-8.8438526E-2,-3.0522214E-3,1.0736877E-1,1.8349309E-3,-5.556406E-3,-3.0668972E-2,-6.8510673E-3,1.7008115E-2,-5.1594772E-3,1.0208833E-2,7.949986E-2],"categories":[],"categories_nodes":[],"categories_segments":[],"categories_sizes":[],"default_left":[0,0,0,0,0,0,0,0,0,0,0,0,0,0,0],"id":39,"left_children":[1,3,5,7,9,11,13,-1,-1,-1,-1,-1,-1,-1,-1],"loss_changes":[2.6154711E0,2.3066478E0,2.7122242E0,3.2235568E0,1.5534267E0,4.068069E0,1.418436E0,0E0,0E0,0E0,0E0,0E0,0E0,0E0,0E0],"parents":[2147483647,0,0,1,1,2,2,3,3,4,4,5,5,6,6],"right_children":[2,4,6,8,10,12,14,-1,-1,-1,-1,-1,-1,-1,-1],"split_conditions":[5E0,8E0,2E0,6.8E1,8.1E1,9.9E1,3.5E1,1.8349309E-3,-5.556406E-3,-3.0668972E-2,-6.8510673E-3,1.7008115E-2,-5.1594772E-3,1.0208833E-2,7.949986E-2],"split_indices":[5,0,0,9,1,1,0,0,0,0,0,0,0,0,0],"split_type":[0,0,0,0,0,0,0,0,0,0,0,0,0,0,0],"sum_hessian":[4.076E3,3.182E3,8.94E2,2.821E3,3.61E2,4.82E2,4.12E2,1.982E3,8.39E2,2.9E1,3.32E2,1.05E2,3.77E2,4.1E2,2E0],"tree_param":{"num_deleted":"0","num_feature":"27","num_nodes":"15","size_leaf_vector":"1"}},{"base_weights":[1.4008592E-4,-5.41757E-2,1.1240613E-2,-3.2717466E-2,-2.1563575E-1,2.2016257E-2,-7.586135E-2,-8.995398E-3,3.915889E-3,4.902992E-3,-2.7652992E-2,-1.582141E-3,4.9956306E-3,-3.0535662E-3,-1.5742248E-2],"categories":[],"categories_nodes":[],"categories_segments":[],"categories_sizes":[],"default_left":[0,0,0,0,0,0,0,0,0,0,0,0,0,0,0],"id":40,"left_children":[1,3,5,7,9,11,13,-1,-1,-1,-1,-1,-1,-1,-1],"loss_changes":[2.45877E0,2.390481E0,3.1797016E0,2.5212612E0,1.3190026E0,3.1871495E0,1.3741047E0,0E0,0E0,0E0,0E0,0E0,0E0,0E0,0E0],"parents":[2147483647,0,0,1,1,2,2,3,3,4,4,5,5,6,6],"right_children":[2,4,6,8,10,12,14,-1,-1,-1,-1,-1,-1,-1,-1],"split_conditions":[4.5E0,5.4E1,1E0,1E2,9.9E1,1E0,2E0,-8.995398E-3,3.915889E-3,4.902992E-3,-2.7652992E-2,-1.582141E-3,4.9956306E-3,-3.0535662E-3,-1.5742248E-2],"split_indices":[10,9,26,2,2,11,0,0,0,0,0,0,0,0,0],"split_type":[0,0,0,0,0,0,0,0,0,0,0,0,0,0,0],"sum_hessian":[4.076E3,6.91E2,3.385E3,6.11E2,8E1,3.013E3,3.72E2,3.4E2,2.71E2,1.5E1,6.5E1,1.28E3,1.733E3,2.4E2,1.32E2],"tree_param":{"num_deleted":"0","num_feature":"27","num_nodes":"15","size_leaf_vector":"1"}},{"base_weights":[1.15424125E-4,6.1393953E-3,-1.0160565E-1,-6.8826705E-2,1.5535748E-2,-6.1595976E-2,-2.151656E-1,-2.563191E-3,-1.879559E-2,2.5092026E-3,-9.478589E-3,-9.717745E-3,6.0413E-3,-1.8986838E-2,-5.1553536E-2],"categories":[],"categories_nodes":[],"categories_segments":[],"categories_sizes":[],"default_left":[0,0,0,0,0,0,0,0,0,0,0,0,0,0,0],"id":41,"left_children":[1,3,5,7,9,11,13,-1,-1,-1,-1,-1,-1,-1,-1],"loss_changes":[2.4988658E0,2.7130396E0,1.0226638E0,2.2027137E0,3.6100698E0,7.438848E-1,3.5042882E-1,0E0,0E0,0E0,0E0,0E0,0E0,0E0,0E0],"parents":[2147483647,0,0,1,1,2,2,3,3,4,4,5,5,6,6],"right_children":[2,4,6,8,10,12,14,-1,-1,-1,-1,-1,-1,-1,-1],"split_conditions":[1E0,1E0,1.12E2,1.5E0,1E0,1.5E0,3E0,-2.563191E-3,-1.879559E-2,2.5092026E-3,-9.478589E-3,-9.717745E-3,6.0413E-3,-1.8986838E-2,-5.1553536E-2],"split_indices":[25,12,9,6,22,6,8,0,0,0,0,0,0,0,0],"split_type":[0,0,0,0,0,0,0,0,0,0,0,0,0,0,0],"sum_hessian":[4.076E3,3.849E3,2.27E2,4.28E2,3.421E3,1.69E2,5.8E1,3.15E2,1.13E2,3.149E3,2.72E2,1.31E2,3.8E1,5.5E1,3E0],"tree_param":{"num_deleted":"0","num_feature":"27","num_nodes":"15","size_leaf_vector":"1"}},{"base_weights":[7.8785146E-5,5.9481463E-3,-9.996041E-2,1.5213524E-2,-6.0594223E-2,-3.7637997E-1,-8.6761534E-2,2.294004E-3,-9.177054E-3,-1.0554956E-3,-1.5965585E-2,-4.1238952E-2,-1.5489452E-2,-1.4999366E-3,-1.355993E-2],"categories":[],"categories_nodes":[],"categories_segments":[],"categories_sizes":[],"default_left":[0,0,0,0,0,0,0,0,0,0,0,0,0,0,0],"id":42,"left_children":[1,3,5,7,9,11,13,-1,-1,-1,-1,-1,-1,-1,-1],"loss_changes":[2.3944712E0,2.3758345E0,7.918894E-1,2.797714E0,2.333048E0,1.5879035E-2,7.5848675E-1,0E0,0E0,0E0,0E0,0E0,0E0,0E0,0E0],"parents":[2147483647,0,0,1,1,2,2,3,3,4,4,5,5,6,6],"right_children":[2,4,6,8,10,12,14,-1,-1,-1,-1,-1,-1,-1,-1],"split_conditions":[1E0,1E0,2E0,1E0,4.2E1,2.2E1,9.8E1,2.294004E-3,-9.177054E-3,-1.0554956E-3,-1.5965585E-2,-4.1238952E-2,-1.5489452E-2,-1.4999366E-3,-1.355993E-2],"split_indices":[21,26,5,25,9,9,2,0,0,0,0,0,0,0,0],"split_type":[0,0,0,0,0,0,0,0,0,0,0,0,0,0,0],"sum_hessian":[4.076E3,3.851E3,2.25E2,3.381E3,4.7E2,9E0,2.16E2,3.154E3,2.27E2,3.13E2,1.57E2,7E0,2E0,8.8E1,1.28E2],"tree_param":{"num_deleted":"0","num_feature":"27","num_nodes":"15","size_leaf_vector":"1"}},{"base_weights":[4.74098E-5,-1.8216597E-2,2.9773463E-2,-2.8982092E-2,6.6201895E-2,9.888191E-1,2.7898036E-2,-5.531205E-3,2.2520337E-4,1.1609646E-2,-5.3149885E-3,-1.9146776E-2,1.6746965E-1,3.5828704E-3,-1.662756E-2],"categories":[],"categories_nodes":[],"categories_segments":[],"categories_sizes":[],"default_left":[0,0,0,0,0,0,0,0,0,0,0,0,0,0,0],"id":43,"left_children":[1,3,5,7,9,11,13,-1,-1,-1,-1,-1,-1,-1,-1],"loss_changes":[2.2140145E0,2.2975647E0,2.7638707E0,1.8431077E0,1.7093015E0,2.7492464E0,2.3928432E0,0E0,0E0,0E0,0E0,0E0,0E0,0E0,0E0],"parents":[2147483647,0,0,1,1,2,2,3,3,4,4,5,5,6,6],"right_children":[2,4,6,8,10,12,14,-1,-1,-1,-1,-1,-1,-1,-1],"split_conditions":[1E0,1E0,3.7E0,1E2,5.2E1,9.9E1,3.1E1,-5.531205E-3,2.2520337E-4,1.1609646E-2,-5.3149885E-3,-1.9146776E-2,1.6746965E-1,3.5828704E-3,-1.662756E-2],"split_indices":[3,16,10,2,9,2,0,0,0,0,0,0,0,0,0],"split_type":[0,0,0,0,0,0,0,0,0,0,0,0,0,0,0],"sum_hessian":[4.076E3,2.525E3,1.551E3,2.24E3,2.85E2,2E0,1.549E3,1.215E3,1.025E3,2.01E2,8.4E1,1E0,1E0,1.489E3,6E1],"tree_param":{"num_deleted":"0","num_feature":"27","num_nodes":"15","size_leaf_vector":"1"}},{"base_weights":[7.6129676E-5,-1.3431601E-1,3.8713499E-3,1.9625847E-1,-1.5487927E-1,-2.718288E-2,2.2529896E-2,-7.244949E-3,5.786856E-2,-1.7036134E-2,8.841893E-3,-3.3606978E-3,2.1252347E-2,9.960925E-3,-4.9669412E-5],"categories":[],"categories_nodes":[],"categories_segments":[],"categories_sizes":[],"default_left":[0,0,0,0,0,0,0,0,0,0,0,0,0,0,0],"id":44,"left_children":[1,3,5,7,9,11,13,-1,-1,-1,-1,-1,-1,-1,-1],"loss_changes":[2.0799847E0,7.9173756E-1,2.298619E0,7.6125395E-1,4.1434002E-1,2.300049E0,4.398189E0,0E0,0E0,0E0,0E0,0E0,0E0,0E0,0E0],"parents":[2147483647,0,0,1,1,2,2,3,3,4,4,5,5,6,6],"right_children":[2,4,6,8,10,12,14,-1,-1,-1,-1,-1,-1,-1,-1],"split_conditions":[3.55E0,6E1,1E0,5.7E1,1E0,2.5E0,9.9E1,-7.244949E-3,5.786856E-2,-1.7036134E-2,8.841893E-3,-3.3606978E-3,2.1252347E-2,9.960925E-3,-4.9669412E-5],"split_indices":[10,1,11,2,18,6,1,0,0,0,0,0,0,0,0],"split_type":[0,0,0,0,0,0,0,0,0,0,0,0,0,0,0],"sum_hessian":[4.076E3,1.11E2,3.965E3,6E0,1.05E2,1.488E3,2.477E3,4E0,2E0,9.9E1,6E0,1.45E3,3.8E1,5.69E2,1.908E3],"tree_param":{"num_deleted":"0","num_feature":"27","num_nodes":"15","size_leaf_vector":"1"}},{"base_weights":[8.5695836E-5,-1.3310134E-2,3.7554026E-2,8.909634E-3,-4.7904916E-2,-2.1943694E-2,7.360563E-2,-6.5598637E-3,2.4089552E-3,-7.7412515E-3,2.9837003E-3,-1.9148326E-2,4.6092022E-4,9.357545E-3,-5.590655E-3],"categories":[],"categories_nodes":[],"categories_segments":[],"categories_sizes":[],"default_left":[0,0,0,0,0,0,0,0,0,0,0,0,0,0,0],"id":45,"left_children":[1,3,5,7,9,11,13,-1,-1,-1,-1,-1,-1,-1,-1],"loss_changes":[2.0468252E0,2.3095655E0,2.3053324E0,2.0713642E0,2.697733E0,1.8285997E0,1.7354887E0,0E0,0E0,0E0,0E0,0E0,0E0,0E0,0E0],"parents":[2147483647,0,0,1,1,2,2,3,3,4,4,5,5,6,6],"right_children":[2,4,6,8,10,12,14,-1,-1,-1,-1,-1,-1,-1,-1],"split_conditions":[4.92E0,5.4E1,6E0,9.3E1,1E0,1E0,8E0,-6.5598637E-3,2.4089552E-3,-7.7412515E-3,2.9837003E-3,-1.9148326E-2,4.6092022E-4,9.357545E-3,-5.590655E-3],"split_indices":[10,9,9,2,17,12,0,0,0,0,0,0,0,0,0],"split_type":[0,0,0,0,0,0,0,0,0,0,0,0,0,0,0],"sum_hessian":[4.076E3,3.003E3,1.073E3,1.829E3,1.174E3,4.05E2,6.68E2,3.09E2,1.52E3,8.51E2,3.23E2,5.4E1,3.51E2,5.79E2,8.9E1],"tree_param":{"num_deleted":"0","num_feature":"27","num_nodes":"15","size_leaf_vector":"1"}},{"base_weights":[7.131376E-5,-4.573866E-3,1.05559684E-1,-8.131655E-3,1.3671058E-1,1.4473785E-1,-1.3059746E-1,-1.6781095E-3,5.834373E-3,3.8998362E-3,2.7253274E-2,1.8436462E-2,-1.1809163E-2,-3.8704272E-2,1.2849892E-3],"categories":[],"categories_nodes":[],"categories_segments":[],"categories_sizes":[],"default_left":[0,0,0,0,0,0,0,0,0,0,0,0,0,0,0],"id":46,"left_children":[1,3,5,7,9,11,13,-1,-1,-1,-1,-1,-1,-1,-1],"loss_changes":[1.9982635E0,1.9645025E0,1.6102815E0,2.1922083E0,1.2634343E0,1.5632036E0,9.2463326E-1,0E0,0E0,0E0,0E0,0E0,0E0,0E0,0E0],"parents":[2147483647,0,0,1,1,2,2,3,3,4,4,5,5,6,6],"right_children":[2,4,6,8,10,12,14,-1,-1,-1,-1,-1,-1,-1,-1],"split_conditions":[1E0,9E0,2.71E2,1E0,1E0,1.8E1,2E0,-1.6781095E-3,5.834373E-3,3.8998362E-3,2.7253274E-2,1.8436462E-2,-1.1809163E-2,-3.8704272E-2,1.2849892E-3],"split_indices":[23,5,9,16,3,0,0,0,0,0,0,0,0,0,0],"split_type":[0,0,0,0,0,0,0,0,0,0,0,0,0,0,0],"sum_hessian":[4.076E3,3.905E3,1.71E2,3.81E3,9.5E1,1.47E2,2.4E1,3.372E3,4.38E2,5.6E1,3.9E1,1.28E2,1.9E1,8E0,1.6E1],"tree_param":{"num_deleted":"0","num_feature":"27","num_nodes":"15","size_leaf_vector":"1"}},{"base_weights":[6.5179556E-5,-1.217983E-1,4.0141568E-3,7.236967E-2,-1.4787975E-1,9.004752E-3,-9.425103E-2,-1.6673725E-2,2.5391672E-2,1.8134682E-3,-5.735251E-3,-2.8313855E-2,-7.296136E-3],"categories":[],"categories_nodes":[],"categories_segments":[],"categories_sizes":[],"default_left":[0,0,0,0,0,0,0,0,0,0,0,0,0],"id":47,"left_children":[1,3,5,-1,7,9,11,-1,-1,-1,-1,-1,-1],"loss_changes":[1.9624885E0,2.9296432E0,1.9379357E0,0E0,9.894469E-1,2.2789876E0,7.474202E-1,0E0,0E0,0E0,0E0,0E0,0E0],"parents":[2147483647,0,0,1,1,2,2,4,4,5,5,6,6],"right_children":[2,4,6,-1,8,10,12,-1,-1,-1,-1,-1,-1],"split_conditions":[2E0,5E-1,1E0,7.236967E-2,1E0,1E0,1E0,-1.6673725E-2,2.5391672E-2,1.8134682E-3,-5.735251E-3,-2.8313855E-2,-7.296136E-3],"split_indices":[5,6,19,0,24,26,12,0,0,0,0,0,0],"split_type":[0,0,0,0,0,0,0,0,0,0,0,0,0],"sum_hessian":[4.076E3,1.27E2,3.949E3,3E0,1.24E2,3.759E3,1.9E2,1.19E2,5E0,3.305E3,4.54E2,1.8E1,1.72E2],"tree_param":{"num_deleted":"0","num_feature":"27","num_nodes":"13","size_leaf_vector":"1"}},{"base_weights":[6.891285E-5,-2.7510265E-2,1.6336838E-2,2.1964474E-2,-5.5149063E-2,2.5652716E-2,-6.852398E-2,-8.247839E-4,1.6096385E-2,-6.208589E-3,3.910972E-2,-7.470846E-4,5.394788E-3,-7.758379E-3,2.6224136E-2],"categories":[],"categories_nodes":[],"categories_segments":[],"categories_sizes":[],"default_left":[0,0,0,0,0,0,0,0,0,0,0,0,0,0,0],"id":48,"left_children":[1,3,5,7,9,11,13,-1,-1,-1,-1,-1,-1,-1,-1],"loss_changes":[1.8296199E0,2.070121E0,2.0295265E0,2.281652E0,3.0300453E0,2.1672935E0,7.815002E-1,0E0,0E0,0E0,0E0,0E0,0E0,0E0,0E0],"parents":[2147483647,0,0,1,1,2,2,3,3,4,4,5,5,6,6],"right_children":[2,4,6,8,10,12,14,-1,-1,-1,-1,-1,-1,-1,-1],"split_conditions":[4.71E0,1E2,1E0,6E0,4E0,1E0,8E0,-8.247839E-4,1.6096385E-2,-6.208589E-3,3.910972E-2,-7.470846E-4,5.394788E-3,-7.758379E-3,2.6224136E-2],"split_indices":[10,1,26,5,7,11,5,0,0,0,0,0,0,0,0],"split_type":[0,0,0,0,0,0,0,0,0,0,0,0,0,0,0],"sum_hessian":[4.076E3,1.512E3,2.564E3,5.42E2,9.7E2,2.311E3,2.53E2,4.46E2,9.6E1,9.56E2,1.4E1,1.065E3,1.246E3,2.47E2,6E0],"tree_param":{"num_deleted":"0","num_feature":"27","num_nodes":"15","size_leaf_vector":"1"}},{"base_weights":[7.946426E-5,5.212109E-3,-8.7402955E-2,6.677062E-3,-3.2565686E-1,-9.915079E-2,1.7626545E-1,1.2192364E-3,-8.065365E-3,-4.3831546E-2,-4.6063503E-3,-2.8411306E-3,-1.50014935E-2,-1.0402316E-2,3.1124959E-2],"categories":[],"categories_nodes":[],"categories_segments":[],"categories_sizes":[],"default_left":[0,0,0,0,0,0,0,0,0,0,0,0,0,0,0],"id":49,"left_children":[1,3,5,7,9,11,13,-1,-1,-1,-1,-1,-1,-1,-1],"loss_changes":[1.8310944E0,1.8692678E0,7.1751976E-1,1.8486128E0,5.1528573E-1,7.765262E-1,4.1072232E-1,0E0,0E0,0E0,0E0,0E0,0E0,0E0,0E0],"parents":[2147483647,0,0,1,1,2,2,3,3,4,4,5,5,6,6],"right_children":[2,4,6,8,10,12,14,-1,-1,-1,-1,-1,-1,-1,-1],"split_conditions":[1E0,1E0,2.31E2,1E0,1E2,9.8E1,3E0,1.2192364E-3,-8.065365E-3,-4.3831546E-2,-4.6063503E-3,-2.8411306E-3,-1.50014935E-2,-1.0402316E-2,3.1124959E-2],"split_indices":[21,14,9,25,1,2,5,0,0,0,0,0,0,0,0],"split_type":[0,0,0,0,0,0,0,0,0,0,0,0,0,0,0],"sum_hessian":[4.076E3,3.851E3,2.25E2,3.835E3,1.6E1,2.16E2,9E0,3.608E3,2.27E2,1.1E1,5E0,9.1E1,1.25E2,3E0,6E0],"tree_param":{"num_deleted":"0","num_feature":"27","num_nodes":"15","size_leaf_vector":"1"}},{"base_weights":[5.8616468E-5,6.744699E-3,-6.352825E-2,-6.599188E-3,5.046401E-2,-1.9907835E-1,-3.5634022E-2,1.5360822E-3,-4.6509965E-3,-2.2599714E-4,9.796703E-3,-1.1280176E-2,-3.9187443E-2,2.3530468E-2,-6.52039E-3],"categories":[],"categories_nodes":[],"categories_segments":[],"categories_sizes":[],"default_left":[0,0,0,0,0,0,0,0,0,0,0,0,0,0,0],"id":50,"left_children":[1,3,5,7,9,11,13,-1,-1,-1,-1,-1,-1,-1,-1],"loss_changes":[1.7337528E0,2.1530256E0,1.4599594E0,2.4792895E0,2.1616468E0,1.0536256E0,2.6030974E0,0E0,0E0,0E0,0E0,0E0,0E0,0E0,0E0],"parents":[2147483647,0,0,1,1,2,2,3,3,4,4,5,5,6,6],"right_children":[2,4,6,8,10,12,14,-1,-1,-1,-1,-1,-1,-1,-1],"split_conditions":[1.4E1,4.93E0,9.7E1,6.3E1,1E0,9.5E1,1E2,1.5360822E-3,-4.6509965E-3,-2.2599714E-4,9.796703E-3,-1.1280176E-2,-3.9187443E-2,2.3530468E-2,-6.52039E-3],"split_indices":[0,10,1,9,3,2,1,0,0,0,0,0,0,0,0],"split_type":[0,0,0,0,0,0,0,0,0,0,0,0,0,0,0],"sum_hessian":[4.076E3,3.689E3,3.87E2,2.827E3,8.62E2,6.5E1,3.22E2,1.824E3,1.003E3,4.09E2,4.53E2,4.6E1,1.9E1,3.1E1,2.91E2],"tree_param":{"num_deleted":"0","num_feature":"27","num_nodes":"15","size_leaf_vector":"1"}},{"base_weights":[4.6229463E-5,-4.8433974E-2,8.149376E-3,-6.0439758E-2,2.6100644E-1,1.5919248E-2,-5.373165E-2,3.9911466E-3,-9.280602E-3,1.2540521E-2,1.5543163E-1,-1.3073901E-2,2.0140295E-3,-3.074313E-3,-1.4677924E-2],"categories":[],"categories_nodes":[],"categories_segments":[],"categories_sizes":[],"default_left":[0,0,0,0,0,0,0,0,0,0,0,0,0,0,0],"id":51,"left_children":[1,3,5,7,9,11,13,-1,-1,-1,-1,-1,-1,-1,-1],"loss_changes":[1.6020124E0,2.1853786E0,1.6807971E0,1.8323247E0,3.663318E0,1.9247887E0,8.2970774E-1,0E0,0E0,0E0,0E0,0E0,0E0,0E0,0E0],"parents":[2147483647,0,0,1,1,2,2,3,3,4,4,5,5,6,6],"right_children":[2,4,6,8,10,12,14,-1,-1,-1,-1,-1,-1,-1,-1],"split_conditions":[4.43E0,6E0,1E0,9.6E1,1E0,2E0,3E0,3.9911466E-3,-9.280602E-3,1.2540521E-2,1.5543163E-1,-1.3073901E-2,2.0140295E-3,-3.074313E-3,-1.4677924E-2],"split_indices":[10,8,26,1,3,5,8,0,0,0,0,0,0,0,0],"split_type":[0,0,0,0,0,0,0,0,0,0,0,0,0,0,0],"sum_hessian":[4.076E3,5.83E2,3.493E3,5.62E2,2.1E1,3.104E3,3.89E2,1.37E2,4.25E2,2E1,1E0,8.6E1,3.018E3,3.13E2,7.6E1],"tree_param":{"num_deleted":"0","num_feature":"27","num_nodes":"15","size_leaf_vector":"1"}},{"base_weights":[7.43487E-5,4.5040813E-3,-8.7661855E-2,1.0627439E-2,-6.890937E-2,-4.506796E-2,-1.8345688E-1,-3.850376E-4,4.7783796E-3,7.1191035E-2,-8.191001E-3,-1.6659224E-2,-1.0294253E-5,-2.6222888E-2,-2.4678935E-3],"categories":[],"categories_nodes":[],"categories_segments":[],"categories_sizes":[],"default_left":[0,0,0,0,0,0,0,0,0,0,0,0,0,0,0],"id":52,"left_children":[1,3,5,7,9,11,13,-1,-1,-1,-1,-1,-1,-1,-1],"loss_changes":[1.5849123E0,1.7458345E0,7.9146767E-1,1.9281709E0,3.0935087E0,7.485976E-1,7.439637E-1,0E0,0E0,0E0,0E0,0E0,0E0,0E0,0E0],"parents":[2147483647,0,0,1,1,2,2,3,3,4,4,5,5,6,6],"right_children":[2,4,6,8,10,12,14,-1,-1,-1,-1,-1,-1,-1,-1],"split_conditions":[1E0,1E0,6.3E1,2E0,4.6E1,4.41E0,4.87E0,-3.850376E-4,4.7783796E-3,7.1191035E-2,-8.191001E-3,-1.6659224E-2,-1.0294253E-5,-2.6222888E-2,-2.4678935E-3],"split_indices":[19,22,9,7,2,10,10,0,0,0,0,0,0,0,0],"split_type":[0,0,0,0,0,0,0,0,0,0,0,0,0,0,0],"sum_hessian":[4.076E3,3.881E3,1.95E2,3.583E3,2.98E2,1.36E2,5.9E1,2.579E3,1.004E3,4E0,2.94E2,3.6E1,1E2,3.9E1,2E1],"tree_param":{"num_deleted":"0","num_feature":"27","num_nodes":"15","size_leaf_vector":"1"}},{"base_weights":[7.219364E-5,4.754645E-3,-7.9736985E-2,-1.1350742E-1,8.098927E-3,-9.027911E-2,1.5700075E-1,1.8829813E-2,-1.3349873E-2,-2.1466867E-3,2.5603862E-3,-6.4393342E-3,-2.1052014E-2,3.455556E-2,-2.6295066E-3],"categories":[],"categories_nodes":[],"categories_segments":[],"categories_sizes":[],"default_left":[0,0,0,0,0,0,0,0,0,0,0,0,0,0,0],"id":53,"left_children":[1,3,5,7,9,11,13,-1,-1,-1,-1,-1,-1,-1,-1],"loss_changes":[1.5239646E0,1.5243918E0,5.782062E-1,6.646875E-1,1.9397993E0,6.618631E-1,3.5469955E-1,0E0,0E0,0E0,0E0,0E0,0E0,0E0,0E0],"parents":[2147483647,0,0,1,1,2,2,3,3,4,4,5,5,6,6],"right_children":[2,4,6,8,10,12,14,-1,-1,-1,-1,-1,-1,-1,-1],"split_conditions":[1E0,3.55E0,2.31E2,6E1,1E0,7.3E1,1.5E0,1.8829813E-2,-1.3349873E-2,-2.1466867E-3,2.5603862E-3,-6.4393342E-3,-2.1052014E-2,3.455556E-2,-2.6295066E-3],"split_indices":[21,10,9,1,11,9,6,0,0,0,0,0,0,0,0],"split_type":[0,0,0,0,0,0,0,0,0,0,0,0,0,0,0],"sum_hessian":[4.076E3,3.851E3,2.25E2,1.05E2,3.746E3,2.16E2,9E0,6E0,9.9E1,1.393E3,2.353E3,1.79E2,3.7E1,4E0,5E0],"tree_param":{"num_deleted":"0","num_feature":"27","num_nodes":"15","size_leaf_vector":"1"}},{"base_weights":[6.738784E-5,-7.649982E-4,4.2353535E-1,4.4593043E-4,-2.8949085E-1,1.6845874E-1,6.364973E-2,-5.634792E-4,6.709938E-3,-3.935511E-2,-3.3121903E-3,2.5556564E-2,2.5198937E-3],"categories":[],"categories_nodes":[],"categories_segments":[],"categories_sizes":[],"default_left":[0,0,0,0,0,0,0,0,0,0,0,0,0],"id":54,"left_children":[1,3,5,7,9,11,-1,-1,-1,-1,-1,-1,-1],"loss_changes":[1.4374208E0,1.4231086E0,3.273492E-1,1.6434687E0,4.4048774E-1,5.5954605E-2,0E0,0E0,0E0,0E0,0E0,0E0,0E0],"parents":[2147483647,0,0,1,1,2,2,3,3,4,4,5,5],"right_children":[2,4,6,8,10,12,-1,-1,-1,-1,-1,-1,-1],"split_conditions":[1E0,1E0,4.52E0,1E0,1E2,3.5E1,6.364973E-2,-5.634792E-4,6.709938E-3,-3.935511E-2,-3.3121903E-3,2.5556564E-2,2.5198937E-3],"split_indices":[15,14,10,20,1,9,0,0,0,0,0,0,0],"split_type":[0,0,0,0,0,0,0,0,0,0,0,0,0],"sum_hessian":[4.076E3,4.069E3,7E0,4.053E3,1.6E1,4E0,3E0,3.715E3,3.38E2,1.1E1,5E0,2E0,2E0],"tree_param":{"num_deleted":"0","num_feature":"27","num_nodes":"13","size_leaf_vector":"1"}},{"base_weights":[7.4299285E-5,-3.7972897E-3,8.799495E-2,-4.4036005E-3,5.8876004E-2,1.2887688E-1,-1.0210917E-1,-6.056287E-3,2.3857922E-4,1.7071329E-2,-7.3746117E-3,-2.0197663E-2,1.2781016E-2],"categories":[],"categories_nodes":[],"categories_segments":[],"categories_sizes":[],"default_left":[0,0,0,0,0,0,0,0,0,0,0,0,0],"id":55,"left_children":[1,3,5,7,-1,9,11,-1,-1,-1,-1,-1,-1],"loss_changes":[1.3881148E0,1.405917E0,1.3499128E0,1.4883089E0,0E0,1.2163265E0,7.3761976E-1,0E0,0E0,0E0,0E0,0E0,0E0],"parents":[2147483647,0,0,1,1,2,2,3,3,5,5,6,6],"right_children":[2,4,6,8,-1,10,12,-1,-1,-1,-1,-1,-1],"split_conditions":[1E0,1E0,2.31E2,1E0,5.8876004E-2,5E0,4.91E0,-6.056287E-3,2.3857922E-4,1.7071329E-2,-7.3746117E-3,-2.0197663E-2,1.2781016E-2],"split_indices":[23,15,9,12,0,0,10,0,0,0,0,0,0],"split_type":[0,0,0,0,0,0,0,0,0,0,0,0,0],"sum_hessian":[4.076E3,3.905E3,1.71E2,3.902E3,3E0,1.41E2,3E1,4.2E2,3.482E3,1.17E2,2.4E1,2.1E1,9E0],"tree_param":{"num_deleted":"0","num_feature":"27","num_nodes":"13","size_leaf_vector":"1"}},{"base_weights":[8.0585654E-5,5.9900805E-3,-5.6120746E-2,-5.521153E-3,4.370477E-2,-1.7862369E-1,-3.0915435E-2,1.4730531E-3,-4.232773E-3,2.839335E-3,1.9321041E-2,-1.0121917E-2,-3.5159316E-2,2.084295E-2,-5.7039144E-3],"categories":[],"categories_nodes":[],"categories_segments":[],"categories_sizes":[],"default_left":[0,0,0,0,0,0,0,0,0,0,0,0,0,0,0],"id":56,"left_children":[1,3,5,7,9,11,13,-1,-1,-1,-1,-1,-1,-1,-1],"loss_changes":[1.3543954E0,1.6022277E0,1.1925148E0,2.108601E0,1.9700456E0,8.4806085E-1,2.031471E0,0E0,0E0,0E0,0E0,0E0,0E0,0E0,0E0],"parents":[2147483647,0,0,1,1,2,2,3,3,4,4,5,5,6,6],"right_children":[2,4,6,8,10,12,14,-1,-1,-1,-1,-1,-1,-1,-1],"split_conditions":[1.4E1,4.93E0,9.7E1,6.3E1,1E0,9.5E1,1E2,1.4730531E-3,-4.232773E-3,2.839335E-3,1.9321041E-2,-1.0121917E-2,-3.5159316E-2,2.084295E-2,-5.7039144E-3],"split_indices":[0,10,1,9,16,2,1,0,0,0,0,0,0,0,0],"split_type":[0,0,0,0,0,0,0,0,0,0,0,0,0,0,0],"sum_hessian":[4.076E3,3.689E3,3.87E2,2.827E3,8.62E2,6.5E1,3.22E2,1.824E3,1.003E3,7.83E2,7.9E1,4.6E1,1.9E1,3.1E1,2.91E2],"tree_param":{"num_deleted":"0","num_feature":"27","num_nodes":"15","size_leaf_vector":"1"}},{"base_weights":[6.992261E-5,4.399995E-3,-7.304783E-2,1.2767642E-2,-4.0678803E-2,3.5275076E-2,-1.0367379E-1,-2.9766762E-3,2.4807293E-3,-6.750889E-3,2.9193792E-3,1.8303111E-2,-2.55794E-3,-1.1662942E-2,1.2564369E-2],"categories":[],"categories_nodes":[],"categories_segments":[],"categories_sizes":[],"default_left":[0,0,0,0,0,0,0,0,0,0,0,0,0,0,0],"id":57,"left_children":[1,3,5,7,9,11,13,-1,-1,-1,-1,-1,-1,-1,-1],"loss_changes":[1.2911208E0,1.4527526E0,7.600453E-1,1.6640375E0,1.1324075E0,4.6325427E-1,5.4348314E-1,0E0,0E0,0E0,0E0,0E0,0E0,0E0,0E0],"parents":[2147483647,0,0,1,1,2,2,3,3,4,4,5,5,6,6],"right_children":[2,4,6,8,10,12,14,-1,-1,-1,-1,-1,-1,-1,-1],"split_conditions":[1E0,4E0,9.6E1,4.52E0,1.5E0,5E0,2E0,-2.9766762E-3,2.4807293E-3,-6.750889E-3,2.9193792E-3,1.8303111E-2,-2.55794E-3,-1.1662942E-2,1.2564369E-2],"split_indices":[25,0,2,10,6,9,6,0,0,0,0,0,0,0,0],"split_type":[0,0,0,0,0,0,0,0,0,0,0,0,0,0,0],"sum_hessian":[4.076E3,3.849E3,2.27E2,3.247E3,6.02E2,5E1,1.77E2,7.16E2,2.531E3,4.35E2,1.67E2,1.4E1,3.6E1,1.68E2,9E0],"tree_param":{"num_deleted":"0","num_feature":"27","num_nodes":"15","size_leaf_vector":"1"}},{"base_weights":[6.6142355E-5,4.0077846E-3,-7.800284E-2,9.458077E-3,-6.133622E-2,-4.0175423E-2,-1.630754E-1,-6.7973766E-3,1.581244E-3,6.598125E-2,-7.335116E-3,-1.0510351E-2,2.7253123E-3,-2.3392366E-2,-2.0360833E-3],"categories":[],"categories_nodes":[],"categories_segments":[],"categories_sizes":[],"default_left":[0,0,0,0,0,0,0,0,0,0,0,0,0,0,0],"id":58,"left_children":[1,3,5,7,9,11,13,-1,-1,-1,-1,-1,-1,-1,-1],"loss_changes":[1.254887E0,1.383131E0,6.2419105E-1,1.76451E0,2.6391006E0,6.0265124E-1,6.0190177E-1,0E0,0E0,0E0,0E0,0E0,0E0,0E0,0E0],"parents":[2147483647,0,0,1,1,2,2,3,3,4,4,5,5,6,6],"right_children":[2,4,6,8,10,12,14,-1,-1,-1,-1,-1,-1,-1,-1],"split_conditions":[1E0,1E0,6.3E1,1E0,4.6E1,1E2,4.87E0,-6.7973766E-3,1.581244E-3,6.598125E-2,-7.335116E-3,-1.0510351E-2,2.7253123E-3,-2.3392366E-2,-2.0360833E-3],"split_indices":[19,22,9,7,2,2,10,0,0,0,0,0,0,0,0],"split_type":[0,0,0,0,0,0,0,0,0,0,0,0,0,0,0],"sum_hessian":[4.076E3,3.881E3,1.95E2,3.583E3,2.98E2,1.36E2,5.9E1,2.71E2,3.312E3,4E0,2.94E2,6.9E1,6.7E1,3.9E1,2E1],"tree_param":{"num_deleted":"0","num_feature":"27","num_nodes":"15","size_leaf_vector":"1"}},{"base_weights":[6.453261E-5,4.243401E-3,-7.116142E-2,8.717758E-3,-6.691357E-2,-8.075231E-2,1.4407714E-1,-1.0965047E-3,2.912548E-3,-9.453762E-3,3.592815E-3,-1.7967866E-3,-1.2595403E-2,-9.384352E-3,2.5944933E-2],"categories":[],"categories_nodes":[],"categories_segments":[],"categories_sizes":[],"default_left":[0,0,0,0,0,0,0,0,0,0,0,0,0,0,0],"id":59,"left_children":[1,3,5,7,9,11,13,-1,-1,-1,-1,-1,-1,-1,-1],"loss_changes":[1.213796E0,1.2269895E0,4.7817326E-1,1.4564137E0,6.5112305E-1,6.135752E-1,2.9884198E-1,0E0,0E0,0E0,0E0,0E0,0E0,0E0,0E0],"parents":[2147483647,0,0,1,1,2,2,3,3,4,4,5,5,6,6],"right_children":[2,4,6,8,10,12,14,-1,-1,-1,-1,-1,-1,-1,-1],"split_conditions":[1E0,1E0,2.31E2,1E2,3E0,9.8E1,3E0,-1.0965047E-3,2.912548E-3,-9.453762E-3,3.592815E-3,-1.7967866E-3,-1.2595403E-2,-9.384352E-3,2.5944933E-2],"split_indices":[21,25,9,2,0,2,5,0,0,0,0,0,0,0,0],"split_type":[0,0,0,0,0,0,0,0,0,0,0,0,0,0,0],"sum_hessian":[4.076E3,3.851E3,2.25E2,3.624E3,2.27E2,2.16E2,9E0,1.845E3,1.779E3,1.79E2,4.8E1,9.1E1,1.25E2,3E0,6E0],"tree_param":{"num_deleted":"0","num_feature":"27","num_nodes":"15","size_leaf_vector":"1"}},{"base_weights":[5.7715075E-5,1.1491936E-3,-2.6068065E-1,-3.436574E-4,2.4216881E-1,-3.5733142E-1,-2.3932299E-2,-5.48293E-4,5.609786E-3,1.0699221E-2,3.5871703E-2,-1.558674E-2,-4.0716752E-2,-9.054184E-3,7.4979785E-4],"categories":[],"categories_nodes":[],"categories_segments":[],"categories_sizes":[],"default_left":[0,0,0,0,0,0,0,0,0,0,0,0,0,0,0],"id":60,"left_children":[1,3,5,7,9,11,13,-1,-1,-1,-1,-1,-1,-1,-1],"loss_changes":[1.1605743E0,1.461257E0,3.8044083E-1,1.1713135E0,3.5548472E-1,5.701804E-2,1.3240219E-2,0E0,0E0,0E0,0E0,0E0,0E0,0E0,0E0],"parents":[2147483647,0,0,1,1,2,2,3,3,4,4,5,5,6,6],"right_children":[2,4,6,8,10,12,14,-1,-1,-1,-1,-1,-1,-1,-1],"split_conditions":[1E0,3.5E0,1E0,1E0,1E1,1E0,1E1,-5.48293E-4,5.609786E-3,1.0699221E-2,3.5871703E-2,-1.558674E-2,-4.0716752E-2,-9.054184E-3,7.4979785E-4],"split_indices":[14,6,17,20,5,4,1,0,0,0,0,0,0,0,0],"split_type":[0,0,0,0,0,0,0,0,0,0,0,0,0,0,0],"sum_hessian":[4.076E3,4.06E3,1.6E1,4.036E3,2.4E1,1.1E1,5E0,3.7E3,3.36E2,1.2E1,1.2E1,3E0,8E0,1E0,4E0],"tree_param":{"num_deleted":"0","num_feature":"27","num_nodes":"15","size_leaf_vector":"1"}},{"base_weights":[4.8808266E-5,-3.3800795E-3,7.7916175E-2,-1.652805E-1,-1.4078774E-3,1.1935437E-1,-7.6503016E-2,-2.9539842E-2,-6.643627E-3,-1.3992245E-3,2.3442002E-3,1.53300185E-2,-8.519639E-3,-1.862448E-2,7.917339E-3],"categories":[],"categories_nodes":[],"categories_segments":[],"categories_sizes":[],"default_left":[0,0,0,0,0,0,0,0,0,0,0,0,0,0,0],"id":61,"left_children":[1,3,5,7,9,11,13,-1,-1,-1,-1,-1,-1,-1,-1],"loss_changes":[1.0888162E0,1.2469546E0,1.1097332E0,5.8486104E-1,1.2074271E0,9.5739615E-1,6.4686126E-1,0E0,0E0,0E0,0E0,0E0,0E0,0E0,0E0],"parents":[2147483647,0,0,1,1,2,2,3,3,4,4,5,5,6,6],"right_children":[2,4,6,8,10,12,14,-1,-1,-1,-1,-1,-1,-1,-1],"split_conditions":[1E0,3E1,2.13E2,5E0,1E0,1.8E1,4.88E0,-2.9539842E-2,-6.643627E-3,-1.3992245E-3,2.3442002E-3,1.53300185E-2,-8.519639E-3,-1.862448E-2,7.917339E-3],"split_indices":[23,2,9,9,17,0,10,0,0,0,0,0,0,0,0],"split_type":[0,0,0,0,0,0,0,0,0,0,0,0,0,0,0],"sum_hessian":[4.076E3,3.905E3,1.71E2,4.6E1,3.859E3,1.35E2,3.6E1,1.9E1,2.7E1,2.562E3,1.297E3,1.16E2,1.9E1,2.1E1,1.5E1],"tree_param":{"num_deleted":"0","num_feature":"27","num_nodes":"15","size_leaf_vector":"1"}},{"base_weights":[3.4246837E-5,-6.3389796E-4,3.8860327E-1,-4.0310785E-2,5.969627E-3,7.245298E-2,1.0932674E-1,-2.5378081E-3,-2.4718635E-2,1.3069053E-3,-5.051343E-3,-1.0656596E-3,1.4198673E-2],"categories":[],"categories_nodes":[],"categories_segments":[],"categories_sizes":[],"default_left":[0,0,0,0,0,0,0,0,0,0,0,0,0],"id":62,"left_children":[1,3,5,7,9,-1,11,-1,-1,-1,-1,-1,-1],"loss_changes":[1.0587186E0,1.0668724E0,5.7750416E-1,1.788559E0,1.4005418E0,0E0,2.1106366E-2,0E0,0E0,0E0,0E0,0E0,0E0],"parents":[2147483647,0,0,1,1,2,2,3,3,4,4,6,6],"right_children":[2,4,6,8,10,-1,12,-1,-1,-1,-1,-1,-1],"split_conditions":[1.1E1,4.43E0,3E0,6.6E1,1E0,7.245298E-2,6.4E1,-2.5378081E-3,-2.4718635E-2,1.3069053E-3,-5.051343E-3,-1.0656596E-3,1.4198673E-2],"split_indices":[8,10,9,9,26,0,1,0,0,0,0,0,0],"split_type":[0,0,0,0,0,0,0,0,0,0,0,0,0],"sum_hessian":[4.076E3,4.07E3,6E0,5.8E2,3.49E3,2E0,4E0,5.42E2,3.8E1,3.101E3,3.89E2,1E0,3E0],"tree_param":{"num_deleted":"0","num_feature":"27","num_nodes":"13","size_leaf_vector":"1"}},{"base_weights":[4.4101413E-5,-4.2887726E-3,5.8147326E-2,-1.0873586E-2,4.8509408E-2,-4.928283E-2,6.581073E-2,-1.7421683E-3,5.126543E-3,-1.01903565E-2,7.879662E-3,4.5322824E-5,1.2245089E-2],"categories":[],"categories_nodes":[],"categories_segments":[],"categories_sizes":[],"default_left":[0,0,0,0,0,0,0,0,0,0,0,0,0],"id":63,"left_children":[1,3,5,7,9,-1,11,-1,-1,-1,-1,-1,-1],"loss_changes":[1.0266501E0,1.3199207E0,1.2273593E0,1.3741546E0,1.9259332E0,0E0,1.0364649E0,0E0,0E0,0E0,0E0,0E0,0E0],"parents":[2147483647,0,0,1,1,2,2,3,3,4,4,6,6],"right_children":[2,4,6,8,10,-1,12,-1,-1,-1,-1,-1,-1],"split_conditions":[3E0,1E0,3E0,1E0,9.2E1,-4.928283E-2,2E0,-1.7421683E-3,5.126543E-3,-1.01903565E-2,7.879662E-3,4.5322824E-5,1.2245089E-2],"split_indices":[7,16,5,20,2,0,0,0,0,0,0,0,0],"split_type":[0,0,0,0,0,0,0,0,0,0,0,0,0],"sum_hessian":[4.076E3,3.794E3,2.82E2,3.374E3,4.2E2,3E0,2.79E2,3.053E3,3.21E2,7E1,3.5E2,1.3E2,1.49E2],"tree_param":{"num_deleted":"0","num_feature":"27","num_nodes":"13","size_leaf_vector":"1"}},{"base_weights":[3.1014824E-5,-6.7102513E-4,3.5718995E-1,-4.628105E-2,4.856125E-3,1.3681765E-1,5.4335784E-2,-1.8037333E-3,-1.6754575E-2,-7.6652505E-4,4.752016E-3,2.1687143E-2,1.115799E-3],"categories":[],"categories_nodes":[],"categories_segments":[],"categories_sizes":[],"default_left":[0,0,0,0,0,0,0,0,0,0,0,0,0],"id":64,"left_children":[1,3,5,7,9,11,-1,-1,-1,-1,-1,-1,-1],"loss_changes":[1.022506E0,1.0262451E0,2.5386906E-1,1.503963E0,1.9400895E0,4.7877803E-2,0E0,0E0,0E0,0E0,0E0,0E0,0E0],"parents":[2147483647,0,0,1,1,2,2,3,3,4,4,5,5],"right_children":[2,4,6,8,10,12,-1,-1,-1,-1,-1,-1,-1],"split_conditions":[1E0,1E0,4.52E0,3E0,1.5E0,3.5E1,5.4335784E-2,-1.8037333E-3,-1.6754575E-2,-7.6652505E-4,4.752016E-3,2.1687143E-2,1.115799E-3],"split_indices":[15,12,10,0,6,9,0,0,0,0,0,0,0],"split_type":[0,0,0,0,0,0,0,0,0,0,0,0,0],"sum_hessian":[4.076E3,4.069E3,7E0,4.39E2,3.63E3,4E0,3E0,3.57E2,8.2E1,2.807E3,8.23E2,2E0,2E0],"tree_param":{"num_deleted":"0","num_feature":"27","num_nodes":"13","size_leaf_vector":"1"}},{"base_weights":[4.3392592E-5,-2.0318469E-2,1.1865883E-2,-6.262094E-2,1.4515053E-3,9.0960905E-2,-5.475616E-3,-1.3164443E-2,-3.2586565E-3,-1.0710111E-2,1.3904729E-3,1.4730583E-2,-4.601294E-3,1.3649598E-1,-7.4169075E-4],"categories":[],"categories_nodes":[],"categories_segments":[],"categories_sizes":[],"default_left":[0,0,0,0,0,0,0,0,0,0,0,0,0,0,0],"id":65,"left_children":[1,3,5,7,9,11,13,-1,-1,-1,-1,-1,-1,-1,-1],"loss_changes":[9.816889E-1,1.3796346E0,3.5392938E0,1.0509063E0,1.3398008E0,3.5878289E0,5.64222E0,0E0,0E0,0E0,0E0,0E0,0E0,0E0,0E0],"parents":[2147483647,0,0,1,1,2,2,3,3,4,4,5,5,6,6],"right_children":[2,4,6,8,10,12,14,-1,-1,-1,-1,-1,-1,-1,-1],"split_conditions":[1E0,4.79E0,9.7E1,9.4E1,1E0,2E0,4.6E1,-1.3164443E-2,-3.2586565E-3,-1.0710111E-2,1.3904729E-3,1.4730583E-2,-4.601294E-3,1.3649598E-1,-7.4169075E-4],"split_indices":[11,10,1,1,12,0,2,0,0,0,0,0,0,0,0],"split_type":[0,0,0,0,0,0,0,0,0,0,0,0,0,0,0],"sum_hessian":[4.076E3,1.497E3,2.579E3,5.08E2,9.89E2,4.63E2,2.116E3,1.53E2,3.55E2,1.01E2,8.88E2,3.28E2,1.35E2,2E0,2.114E3],"tree_param":{"num_deleted":"0","num_feature":"27","num_nodes":"15","size_leaf_vector":"1"}},{"base_weights":[6.84473E-5,3.4932138E-3,-6.776325E-2,9.449936E-4,1.08458534E-1,-3.277331E-2,-1.4652754E-1,5.7508925E-4,-5.6028473E-3,4.7340065E-2,7.7492795E-3,-1.3120519E-2,3.6103823E-4,-2.0787511E-2,-2.269754E-3],"categories":[],"categories_nodes":[],"categories_segments":[],"categories_sizes":[],"default_left":[0,0,0,0,0,0,0,0,0,0,0,0,0,0,0],"id":66,"left_children":[1,3,5,7,9,11,13,-1,-1,-1,-1,-1,-1,-1,-1],"loss_changes":[9.473553E-1,1.0382345E0,5.353655E-1,1.038331E0,1.0029795E0,4.911139E-1,4.5108187E-1,0E0,0E0,0E0,0E0,0E0,0E0,0E0,0E0],"parents":[2147483647,0,0,1,1,2,2,3,3,4,4,5,5,6,6],"right_children":[2,4,6,8,10,12,14,-1,-1,-1,-1,-1,-1,-1,-1],"split_conditions":[1E0,9E0,6.3E1,1E0,9.3E1,4.41E0,4.87E0,5.7508925E-4,-5.6028473E-3,4.7340065E-2,7.7492795E-3,-1.3120519E-2,3.6103823E-4,-2.0787511E-2,-2.269754E-3],"split_indices":[19,5,9,22,1,10,10,0,0,0,0,0,0,0,0],"split_type":[0,0,0,0,0,0,0,0,0,0,0,0,0,0,0],"sum_hessian":[4.076E3,3.881E3,1.95E2,3.79E3,9.1E1,1.36E2,5.9E1,3.496E3,2.94E2,6E0,8.5E1,3.6E1,1E2,3.9E1,2E1],"tree_param":{"num_deleted":"0","num_feature":"27","num_nodes":"15","size_leaf_vector":"1"}},{"base_weights":[6.5124295E-5,-8.906649E-2,2.5821882E-3,1.9169542E-1,-1.0676712E-1,-1.87732E-2,1.5413339E-2,-4.8665903E-3,5.2839916E-2,-1.2098624E-2,1.1161556E-2,-2.2433174E-3,2.0557245E-2,7.699235E-3,-2.981343E-4],"categories":[],"categories_nodes":[],"categories_segments":[],"categories_sizes":[],"default_left":[0,0,0,0,0,0,0,0,0,0,0,0,0,0,0],"id":67,"left_children":[1,3,5,7,9,11,13,-1,-1,-1,-1,-1,-1,-1,-1],"loss_changes":[9.149048E-1,5.77069E-1,1.0870298E0,5.922289E-1,3.4265614E-1,1.2272284E0,2.8071253E0,0E0,0E0,0E0,0E0,0E0,0E0,0E0,0E0],"parents":[2147483647,0,0,1,1,2,2,3,3,4,4,5,5,6,6],"right_children":[2,4,6,8,10,12,14,-1,-1,-1,-1,-1,-1,-1,-1],"split_conditions":[3.55E0,6E1,1E0,5.7E1,1E0,9E0,9.9E1,-4.8665903E-3,5.2839916E-2,-1.2098624E-2,1.1161556E-2,-2.2433174E-3,2.0557245E-2,7.699235E-3,-2.981343E-4],"split_indices":[10,1,11,2,18,5,1,0,0,0,0,0,0,0,0],"split_type":[0,0,0,0,0,0,0,0,0,0,0,0,0,0,0],"sum_hessian":[4.076E3,1.11E2,3.965E3,6E0,1.05E2,1.488E3,2.477E3,4E0,2E0,9.9E1,6E0,1.465E3,2.3E1,5.69E2,1.908E3],"tree_param":{"num_deleted":"0","num_feature":"27","num_nodes":"15","size_leaf_vector":"1"}},{"base_weights":[7.6503005E-5,1.0461442E-3,-2.3155816E-1,-1.6351759E-4,1.9634047E-1,-3.184652E-1,-1.9151052E-2,3.4836453E-4,-6.1970046E-3,1.50108775E-2,4.8533678E-2,-1.3800836E-2,-3.6328323E-2,-7.5417045E-3,7.185555E-4],"categories":[],"categories_nodes":[],"categories_segments":[],"categories_sizes":[],"default_left":[0,0,0,0,0,0,0,0,0,0,0,0,0,0,0],"id":68,"left_children":[1,3,5,7,9,11,13,-1,-1,-1,-1,-1,-1,-1,-1],"loss_changes":[9.1594666E-1,9.594031E-1,3.0771542E-1,9.102302E-1,2.611664E-1,4.6916604E-2,9.433045E-3,0E0,0E0,0E0,0E0,0E0,0E0,0E0,0E0],"parents":[2147483647,0,0,1,1,2,2,3,3,4,4,5,5,6,6],"right_children":[2,4,6,8,10,12,14,-1,-1,-1,-1,-1,-1,-1,-1],"split_conditions":[1E0,3.5E0,1E0,1E0,6.5E0,1E0,1E1,3.4836453E-4,-6.1970046E-3,1.50108775E-2,4.8533678E-2,-1.3800836E-2,-3.6328323E-2,-7.5417045E-3,7.185555E-4],"split_indices":[14,6,17,21,6,4,1,0,0,0,0,0,0,0,0],"split_type":[0,0,0,0,0,0,0,0,0,0,0,0,0,0,0],"sum_hessian":[4.076E3,4.06E3,1.6E1,4.036E3,2.4E1,1.1E1,5E0,3.812E3,2.24E2,2.2E1,2E0,3E0,8E0,1E0,4E0],"tree_param":{"num_deleted":"0","num_feature":"27","num_nodes":"15","size_leaf_vector":"1"}},{"base_weights":[6.8854024E-5,-5.167351E-2,4.3257712E-3,-3.1801546E-1,-3.8944684E-2,9.069089E-3,-5.8156062E-2,-3.5677623E-2,-5.696726E-3,3.167924E-2,-5.244351E-3,1.1139702E-2,4.4900016E-4,8.9419E-2,-7.2419285E-3],"categories":[],"categories_nodes":[],"categories_segments":[],"categories_sizes":[],"default_left":[0,0,0,0,0,0,0,0,0,0,0,0,0,0,0],"id":69,"left_children":[1,3,5,7,9,11,13,-1,-1,-1,-1,-1,-1,-1,-1],"loss_changes":[8.982356E-1,1.0385832E0,1.1172541E0,1.2133336E-1,1.4428171E0,1.6408954E0,3.6779747E0,0E0,0E0,0E0,0E0,0E0,0E0,0E0,0E0],"parents":[2147483647,0,0,1,1,2,2,3,3,4,4,5,5,6,6],"right_children":[2,4,6,8,10,12,14,-1,-1,-1,-1,-1,-1,-1,-1],"split_conditions":[1E0,6.8E1,1E0,5.8E1,8.2E1,1E0,4.6E1,-3.5677623E-2,-5.696726E-3,3.167924E-2,-5.244351E-3,1.1139702E-2,4.4900016E-4,8.9419E-2,-7.2419285E-3],"split_indices":[7,2,22,9,2,4,2,0,0,0,0,0,0,0,0],"split_type":[0,0,0,0,0,0,0,0,0,0,0,0,0,0,0],"sum_hessian":[4.076E3,3.09E2,3.767E3,1.3E1,2.96E2,3.502E3,2.65E2,1.1E1,2E0,1E1,2.86E2,1.49E2,3.353E3,3E0,2.62E2],"tree_param":{"num_deleted":"0","num_feature":"27","num_nodes":"15","size_leaf_vector":"1"}},{"base_weights":[8.114103E-5,3.6218502E-3,-5.9707504E-2,-8.687724E-3,2.402487E-2,-3.0052619E-2,-1.441418E-1,-6.6757402E-3,6.581166E-5,8.776352E-2,2.2238516E-3,-5.59227E-3,5.8278227E-3,-1.1942244E-2,-4.5417726E-2],"categories":[],"categories_nodes":[],"categories_segments":[],"categories_sizes":[],"default_left":[0,0,0,0,0,0,0,0,0,0,0,0,0,0,0],"id":70,"left_children":[1,3,5,7,9,11,13,-1,-1,-1,-1,-1,-1,-1,-1],"loss_changes":[8.6329347E-1,9.671459E-1,5.6655484E-1,1.3036335E0,2.1899917E0,3.9173046E-1,3.9792955E-1,0E0,0E0,0E0,0E0,0E0,0E0,0E0,0E0],"parents":[2147483647,0,0,1,1,2,2,3,3,4,4,5,5,6,6],"right_children":[2,4,6,8,10,12,14,-1,-1,-1,-1,-1,-1,-1,-1],"split_conditions":[1E0,1E0,1.12E2,1E0,3.7E0,1.5E0,3E0,-6.6757402E-3,6.581166E-5,8.776352E-2,2.2238516E-3,-5.59227E-3,5.8278227E-3,-1.1942244E-2,-4.5417726E-2],"split_indices":[25,3,9,12,10,6,8,0,0,0,0,0,0,0,0],"split_type":[0,0,0,0,0,0,0,0,0,0,0,0,0,0,0],"sum_hessian":[4.076E3,3.849E3,2.27E2,2.401E3,1.448E3,1.69E2,5.8E1,3.32E2,2.069E3,2E0,1.446E3,1.31E2,3.8E1,5.5E1,3E0],"tree_param":{"num_deleted":"0","num_feature":"27","num_nodes":"15","size_leaf_vector":"1"}},{"base_weights":[7.943099E-5,-5.5658224E-4,3.2364124E-1,4.0247287E-3,-4.4166382E-2,1.1399527E-1,5.0478842E-2,-8.751996E-4,2.6198416E-3,-7.20485E-3,4.229284E-3,1.9099569E-2,-1.0035833E-4],"categories":[],"categories_nodes":[],"categories_segments":[],"categories_sizes":[],"default_left":[0,0,0,0,0,0,0,0,0,0,0,0,0],"id":71,"left_children":[1,3,5,7,9,11,-1,-1,-1,-1,-1,-1,-1],"loss_changes":[8.391843E-1,8.133233E-1,2.4627072E-1,1.0439326E0,9.359748E-1,4.446648E-2,0E0,0E0,0E0,0E0,0E0,0E0,0E0],"parents":[2147483647,0,0,1,1,2,2,3,3,4,4,5,5],"right_children":[2,4,6,8,10,12,-1,-1,-1,-1,-1,-1,-1],"split_conditions":[1E0,1.4E1,4.52E0,1E0,1.5E0,3.5E1,5.0478842E-2,-8.751996E-4,2.6198416E-3,-7.20485E-3,4.229284E-3,1.9099569E-2,-1.0035833E-4],"split_indices":[15,0,10,3,6,9,0,0,0,0,0,0,0],"split_type":[0,0,0,0,0,0,0,0,0,0,0,0,0],"sum_hessian":[4.076E3,4.069E3,7E0,3.683E3,3.86E2,4E0,3E0,2.337E3,1.346E3,2.92E2,9.4E1,2E0,2E0],"tree_param":{"num_deleted":"0","num_feature":"27","num_nodes":"13","size_leaf_vector":"1"}},{"base_weights":[8.816868E-5,6.9341296E-3,-2.7963266E-2,-1.0567848E-4,6.399598E-2,-4.5347646E-2,1.079804E-1,-1.4312987E-3,2.7932886E-3,-6.9599934E-3,9.094716E-3,-5.819693E-3,8.753623E-3,4.7706794E-2,5.652431E-3],"categories":[],"categories_nodes":[],"categories_segments":[],"categories_sizes":[],"default_left":[0,0,0,0,0,0,0,0,0,0,0,0,0,0,0],"id":72,"left_children":[1,3,5,7,9,11,13,-1,-1,-1,-1,-1,-1,-1,-1],"loss_changes":[7.8313696E-1,1.316794E0,1.8955337E0,1.1631908E0,1.3025341E0,1.2173929E0,1.7012882E0,0E0,0E0,0E0,0E0,0E0,0E0,0E0,0E0],"parents":[2147483647,0,0,1,1,2,2,3,3,4,4,5,5,6,6],"right_children":[2,4,6,8,10,12,14,-1,-1,-1,-1,-1,-1,-1,-1],"split_conditions":[1.04E2,1E0,4.94E0,1E0,9.1E1,1E0,2E0,-1.4312987E-3,2.7932886E-3,-6.9599934E-3,9.094716E-3,-5.819693E-3,8.753623E-3,4.7706794E-2,5.652431E-3],"split_indices":[9,16,10,3,2,20,0,0,0,0,0,0,0,0,0],"split_type":[0,0,0,0,0,0,0,0,0,0,0,0,0,0,0],"sum_hessian":[4.076E3,3.277E3,7.99E2,2.918E3,3.59E2,7.09E2,9E1,1.937E3,9.81E2,6E1,2.99E2,6.47E2,6.2E1,1E1,8E1],"tree_param":{"num_deleted":"0","num_feature":"27","num_nodes":"15","size_leaf_vector":"1"}},{"base_weights":[9.409312E-5,-2.812897E-3,6.610926E-2,-3.294735E-3,4.680437E-2,9.884816E-2,-8.598854E-2,-1.8663948E-2,-2.112236E-4,-4.291218E-2,1.0945574E-2,-2.7216742E-2,1.562843E-3],"categories":[],"categories_nodes":[],"categories_segments":[],"categories_sizes":[],"default_left":[0,0,0,0,0,0,0,0,0,0,0,0,0],"id":73,"left_children":[1,3,5,7,-1,9,11,-1,-1,-1,-1,-1,-1],"loss_changes":[7.825844E-1,8.8772196E-1,8.649761E-1,8.4579563E-1,0E0,8.422389E-1,5.9074056E-1,0E0,0E0,0E0,0E0,0E0,0E0],"parents":[2147483647,0,0,1,1,2,2,3,3,5,5,6,6],"right_children":[2,4,6,8,-1,10,12,-1,-1,-1,-1,-1,-1],"split_conditions":[1E0,1E0,2.31E2,1.7E1,4.680437E-2,1E0,2E0,-1.8663948E-2,-2.112236E-4,-4.291218E-2,1.0945574E-2,-2.7216742E-2,1.562843E-3],"split_indices":[23,15,9,2,0,7,0,0,0,0,0,0,0],"split_type":[0,0,0,0,0,0,0,0,0,0,0,0,0],"sum_hessian":[4.076E3,3.905E3,1.71E2,3.902E3,3E0,1.41E2,3E1,2.4E1,3.878E3,2E0,1.39E2,1E1,2E1],"tree_param":{"num_deleted":"0","num_feature":"27","num_nodes":"13","size_leaf_vector":"1"}},{"base_weights":[7.740698E-5,-4.8263656E-4,3.2577166E-1,4.5016767E-3,-3.868054E-2,6.283045E-2,7.909765E-2,5.4066256E-3,-5.0289393E-4,-1.2505013E-2,-4.9357995E-4,-2.230382E-3,1.1002398E-2],"categories":[],"categories_nodes":[],"categories_segments":[],"categories_sizes":[],"default_left":[0,0,0,0,0,0,0,0,0,0,0,0,0],"id":74,"left_children":[1,3,5,7,9,-1,11,-1,-1,-1,-1,-1,-1],"loss_changes":[7.438142E-1,7.7525306E-1,4.7269148E-1,1.7017882E0,1.3692069E0,0E0,1.8133827E-2,0E0,0E0,0E0,0E0,0E0,0E0],"parents":[2147483647,0,0,1,1,2,2,3,3,4,4,6,6],"right_children":[2,4,6,8,10,-1,12,-1,-1,-1,-1,-1,-1],"split_conditions":[1.1E1,1E0,3E0,9.6E1,9.5E1,6.283045E-2,6.4E1,5.4066256E-3,-5.0289393E-4,-1.2505013E-2,-4.9357995E-4,-2.230382E-3,1.1002398E-2],"split_indices":[8,26,9,1,1,0,1,0,0,0,0,0,0],"split_type":[0,0,0,0,0,0,0,0,0,0,0,0,0],"sum_hessian":[4.076E3,4.07E3,6E0,3.601E3,4.69E2,2E0,4E0,5.8E2,3.021E3,1.31E2,3.38E2,1E0,3E0],"tree_param":{"num_deleted":"0","num_feature":"27","num_nodes":"13","size_leaf_vector":"1"}},{"base_weights":[8.5326246E-5,3.1102335E-3,-5.982679E-2,1.6881776E-1,1.9058441E-3,-2.748353E-2,-1.3268012E-1,6.830364E-2,7.979008E-3,-8.745683E-3,4.7756554E-4,-8.257559E-3,2.9633045E-3,-1.8664664E-2,-2.3568675E-3],"categories":[],"categories_nodes":[],"categories_segments":[],"categories_sizes":[],"default_left":[0,0,0,0,0,0,0,0,0,0,0,0,0,0,0],"id":75,"left_children":[1,3,5,7,9,11,13,-1,-1,-1,-1,-1,-1,-1,-1],"loss_changes":[7.3905504E-1,7.7443373E-1,4.5819104E-1,1.2273319E0,9.8904794E-1,4.335407E-1,3.4890282E-1,0E0,0E0,0E0,0E0,0E0,0E0,0E0,0E0],"parents":[2147483647,0,0,1,1,2,2,3,3,4,4,5,5,6,6],"right_children":[2,4,6,8,10,12,14,-1,-1,-1,-1,-1,-1,-1,-1],"split_conditions":[1E0,5E-1,6.3E1,2E0,2E0,1E2,4.87E0,6.830364E-2,7.979008E-3,-8.745683E-3,4.7756554E-4,-8.257559E-3,2.9633045E-3,-1.8664664E-2,-2.3568675E-3],"split_indices":[19,6,9,5,5,2,10,0,0,0,0,0,0,0,0],"split_type":[0,0,0,0,0,0,0,0,0,0,0,0,0,0,0],"sum_hessian":[4.076E3,3.881E3,1.95E2,2.7E1,3.854E3,1.36E2,5.9E1,3E0,2.4E1,1.19E2,3.735E3,6.9E1,6.7E1,3.9E1,2E1],"tree_param":{"num_deleted":"0","num_feature":"27","num_nodes":"15","size_leaf_vector":"1"}},{"base_weights":[8.6822314E-5,3.250583E-3,-5.333671E-2,9.770633E-3,-3.187441E-2,-7.736231E-2,3.6009073E-2,5.0191428E-3,9.0927664E-5,-1.1402894E-2,-1.1861841E-3,-5.0107264E-3,-1.4920522E-2,-1.6546112E-3,1.3590978E-2],"categories":[],"categories_nodes":[],"categories_segments":[],"categories_sizes":[],"default_left":[0,0,0,0,0,0,0,0,0,0,0,0,0,0,0],"id":76,"left_children":[1,3,5,7,9,11,13,-1,-1,-1,-1,-1,-1,-1,-1],"loss_changes":[6.89265E-1,8.820257E-1,4.9220723E-1,1.1633327E0,9.9005365E-1,3.4497857E-1,2.595135E-1,0E0,0E0,0E0,0E0,0E0,0E0,0E0,0E0],"parents":[2147483647,0,0,1,1,2,2,3,3,4,4,5,5,6,6],"right_children":[2,4,6,8,10,12,14,-1,-1,-1,-1,-1,-1,-1,-1],"split_conditions":[1E0,4E0,3E0,9.6E1,9.8E1,4.86E0,1.5E0,5.0191428E-3,9.0927664E-5,-1.1402894E-2,-1.1861841E-3,-5.0107264E-3,-1.4920522E-2,-1.6546112E-3,1.3590978E-2],"split_indices":[25,0,0,1,1,10,6,0,0,0,0,0,0,0,0],"split_type":[0,0,0,0,0,0,0,0,0,0,0,0,0,0,0],"sum_hessian":[4.076E3,3.849E3,2.27E2,3.247E3,6.02E2,1.79E2,4.8E1,5.83E2,2.664E3,1.17E2,4.85E2,1.31E2,4.8E1,3.2E1,1.6E1],"tree_param":{"num_deleted":"0","num_feature":"27","num_nodes":"15","size_leaf_vector":"1"}},{"base_weights":[7.427443E-5,9.223491E-4,-2.0252018E-1,-4.5505002E-2,4.758052E-3,-2.878133E-1,1.8194517E-3,-2.8242795E-2,-3.4183704E-3,-1.0168897E-3,2.0693957E-3,-1.2807851E-2,-3.516709E-2,2.0932388E-3,-4.687262E-3],"categories":[],"categories_nodes":[],"categories_segments":[],"categories_sizes":[],"default_left":[0,0,0,0,0,0,0,0,0,0,0,0,0,0,0],"id":77,"left_children":[1,3,5,7,9,11,13,-1,-1,-1,-1,-1,-1,-1,-1],"loss_changes":[7.0067745E-1,7.234056E-1,2.9681277E-1,8.21851E-1,8.9271533E-1,7.736188E-2,6.5650465E-3,0E0,0E0,0E0,0E0,0E0,0E0,0E0,0E0],"parents":[2147483647,0,0,1,1,2,2,3,3,4,4,5,5,6,6],"right_children":[2,4,6,8,10,12,14,-1,-1,-1,-1,-1,-1,-1,-1],"split_conditions":[1E0,1E0,1E2,6.8E1,1E2,4.49E0,9.9E1,-2.8242795E-2,-3.4183704E-3,-1.0168897E-3,2.0693957E-3,-1.2807851E-2,-3.516709E-2,2.0932388E-3,-4.687262E-3],"split_indices":[14,7,1,2,2,10,2,0,0,0,0,0,0,0,0],"split_type":[0,0,0,0,0,0,0,0,0,0,0,0,0,0,0],"sum_hessian":[4.076E3,4.06E3,1.6E1,3.09E2,3.751E3,1.1E1,5E0,1.3E1,2.96E2,1.937E3,1.814E3,4E0,7E0,4E0,1E0],"tree_param":{"num_deleted":"0","num_feature":"27","num_nodes":"15","size_leaf_vector":"1"}},{"base_weights":[4.699419E-5,3.1463834E-3,-5.2779973E-2,-7.9602525E-2,5.4864525E-3,-6.1220985E-2,1.3566796E-1,1.7224293E-3,-1.3396493E-2,1.6293095E-2,3.8723345E-4,-1.2712557E-3,-1.1284224E-2,2.9813442E-2,-2.2332072E-3],"categories":[],"categories_nodes":[],"categories_segments":[],"categories_sizes":[],"default_left":[0,0,0,0,0,0,0,0,0,0,0,0,0,0,0],"id":78,"left_children":[1,3,5,7,9,11,13,-1,-1,-1,-1,-1,-1,-1,-1],"loss_changes":[6.676987E-1,7.463309E-1,3.6780202E-1,5.602637E-1,9.5160913E-1,5.4194766E-1,2.6335502E-1,0E0,0E0,0E0,0E0,0E0,0E0,0E0,0E0],"parents":[2147483647,0,0,1,1,2,2,3,3,4,4,5,5,6,6],"right_children":[2,4,6,8,10,12,14,-1,-1,-1,-1,-1,-1,-1,-1],"split_conditions":[1E0,3.55E0,2.31E2,9.8E1,3.83E0,9.9E1,1.5E0,1.7224293E-3,-1.3396493E-2,1.6293095E-2,3.8723345E-4,-1.2712557E-3,-1.1284224E-2,2.9813442E-2,-2.2332072E-3],"split_indices":[21,10,9,1,10,2,6,0,0,0,0,0,0,0,0],"split_type":[0,0,0,0,0,0,0,0,0,0,0,0,0,0,0],"sum_hessian":[4.076E3,3.851E3,2.25E2,1.05E2,3.746E3,2.16E2,9E0,3.8E1,6.7E1,3.7E1,3.709E3,1.12E2,1.04E2,4E0,5E0],"tree_param":{"num_deleted":"0","num_feature":"27","num_nodes":"15","size_leaf_vector":"1"}},{"base_weights":[4.724758E-5,1.1881896E-2,-1.389895E-2,-4.1577755E-3,5.8254346E-2,-2.5776563E-2,1.06727414E-1,-9.855253E-4,1.1654635E-2,8.142982E-2,5.413685E-3,-2.8696747E-3,3.0514387E-2,1.2110203E-2,-3.0157069E-2],"categories":[],"categories_nodes":[],"categories_segments":[],"categories_sizes":[],"default_left":[0,0,0,0,0,0,0,0,0,0,0,0,0,0,0],"id":79,"left_children":[1,3,5,7,9,11,13,-1,-1,-1,-1,-1,-1,-1,-1],"loss_changes":[6.730673E-1,1.6410626E0,2.6848652E0,1.1289914E0,1.720992E0,1.6563803E0,1.0225341E0,0E0,0E0,0E0,0E0,0E0,0E0,0E0,0E0],"parents":[2147483647,0,0,1,1,2,2,3,3,4,4,5,5,6,6],"right_children":[2,4,6,8,10,12,14,-1,-1,-1,-1,-1,-1,-1,-1],"split_conditions":[3.3E1,1E0,1E0,1E0,3.7E0,6E1,3.73E2,-9.855253E-4,1.1654635E-2,8.142982E-2,5.413685E-3,-2.8696747E-3,3.0514387E-2,1.2110203E-2,-3.0157069E-2],"split_indices":[9,3,20,24,10,0,9,0,0,0,0,0,0,0,0],"split_type":[0,0,0,0,0,0,0,0,0,0,0,0,0,0,0],"sum_hessian":[4.076E3,2.205E3,1.871E3,1.639E3,5.66E2,1.704E3,1.67E2,1.566E3,7.3E1,2E0,5.64E2,1.69E3,1.4E1,1.62E2,5E0],"tree_param":{"num_deleted":"0","num_feature":"27","num_nodes":"15","size_leaf_vector":"1"}},{"base_weights":[6.8820045E-5,-1.5562834E-1,1.067847E-3,-2.8560886E-1,-5.6539953E-2,5.2041773E-2,-2.55611E-3,-1.7519474E-2,-4.350349E-2,-1.5438522E-2,1.7605734E-3,-1.4564928E-3,1.7029865E-2,-1.3774144E-2,3.0618158E-4],"categories":[],"categories_nodes":[],"categories_segments":[],"categories_sizes":[],"default_left":[0,0,0,0,0,0,0,0,0,0,0,0,0,0,0],"id":80,"left_children":[1,3,5,7,9,11,13,-1,-1,-1,-1,-1,-1,-1,-1],"loss_changes":[6.343258E-1,3.1872016E-1,7.486481E-1,1.05270386E-1,1.1879493E-1,2.121313E0,2.874223E0,0E0,0E0,0E0,0E0,0E0,0E0,0E0,0E0],"parents":[2147483647,0,0,1,1,2,2,3,3,4,4,5,5,6,6],"right_children":[2,4,6,8,10,12,14,-1,-1,-1,-1,-1,-1,-1,-1],"split_conditions":[1.7E1,4E0,8.5E1,5.6E1,6E0,9.6E1,9.2E1,-1.7519474E-2,-4.350349E-2,-1.5438522E-2,1.7605734E-3,-1.4564928E-3,1.7029865E-2,-1.3774144E-2,3.0618158E-4],"split_indices":[2,9,1,1,2,2,1,0,0,0,0,0,0,0,0],"split_type":[0,0,0,0,0,0,0,0,0,0,0,0,0,0,0],"sum_hessian":[4.076E3,2.5E1,4.051E3,1E1,1.5E1,2.68E2,3.783E3,7E0,3E0,6E0,9E0,1.72E2,9.6E1,1.5E2,3.633E3],"tree_param":{"num_deleted":"0","num_feature":"27","num_nodes":"15","size_leaf_vector":"1"}},{"base_weights":[4.416434E-5,4.0802173E-3,-3.8340062E-2,2.9805128E-2,-5.402408E-3,-1.410017E-1,-1.7244061E-2,-3.2953478E-3,6.936621E-3,2.1945823E-2,-1.2183083E-3,-6.8258196E-3,-3.0489886E-2,1.9573735E-2,-4.0525435E-3],"categories":[],"categories_nodes":[],"categories_segments":[],"categories_sizes":[],"default_left":[0,0,0,0,0,0,0,0,0,0,0,0,0,0,0],"id":81,"left_children":[1,3,5,7,9,11,13,-1,-1,-1,-1,-1,-1,-1,-1],"loss_changes":[6.317685E-1,9.002985E-1,8.3787954E-1,2.470187E0,4.1148076E0,7.6607037E-1,1.6095277E0,0E0,0E0,0E0,0E0,0E0,0E0,0E0,0E0],"parents":[2147483647,0,0,1,1,2,2,3,3,4,4,5,5,6,6],"right_children":[2,4,6,8,10,12,14,-1,-1,-1,-1,-1,-1,-1,-1],"split_conditions":[1.4E1,9.8E1,9.7E1,9.9E1,8.5E1,9.5E1,1E2,-3.2953478E-3,6.936621E-3,2.1945823E-2,-1.2183083E-3,-6.8258196E-3,-3.0489886E-2,1.9573735E-2,-4.0525435E-3],"split_indices":[0,2,1,1,1,2,1,0,0,0,0,0,0,0,0],"split_type":[0,0,0,0,0,0,0,0,0,0,0,0,0,0,0],"sum_hessian":[4.076E3,3.689E3,3.87E2,9.93E2,2.696E3,6.5E1,3.22E2,3.84E2,6.09E2,7.8E1,2.618E3,4.6E1,1.9E1,3.1E1,2.91E2],"tree_param":{"num_deleted":"0","num_feature":"27","num_nodes":"15","size_leaf_vector":"1"}},{"base_weights":[4.040958E-5,-4.7327916E-4,2.9878134E-1,4.0630666E-3,-3.5238054E-2,5.8505185E-2,6.726275E-2,4.963398E-3,-4.6995954E-4,-1.1564808E-2,-3.8240076E-4,-2.0488103E-5,1.1230946E-2],"categories":[],"categories_nodes":[],"categories_segments":[],"categories_sizes":[],"default_left":[0,0,0,0,0,0,0,0,0,0,0,0,0],"id":82,"left_children":[1,3,5,7,9,-1,11,-1,-1,-1,-1,-1,-1],"loss_changes":[6.2579715E-1,6.4216036E-1,4.2458647E-1,1.4385929E0,1.1867797E0,0E0,1.5218986E-2,0E0,0E0,0E0,0E0,0E0,0E0],"parents":[2147483647,0,0,1,1,2,2,3,3,4,4,6,6],"right_children":[2,4,6,8,10,-1,12,-1,-1,-1,-1,-1,-1],"split_conditions":[1.1E1,1E0,3E0,9.6E1,9.5E1,5.8505185E-2,2.7E1,4.963398E-3,-4.6995954E-4,-1.1564808E-2,-3.8240076E-4,-2.0488103E-5,1.1230946E-2],"split_indices":[8,26,9,1,1,0,9,0,0,0,0,0,0],"split_type":[0,0,0,0,0,0,0,0,0,0,0,0,0],"sum_hessian":[4.076E3,4.07E3,6E0,3.601E3,4.69E2,2E0,4E0,5.8E2,3.021E3,1.31E2,3.38E2,2E0,2E0],"tree_param":{"num_deleted":"0","num_feature":"27","num_nodes":"13","size_leaf_vector":"1"}},{"base_weights":[5.1780105E-5,-1.6373368E-2,9.588532E-3,-2.0499118E-2,1.3849759E-1,7.5167953E-3,4.927498E-1,-1.2056364E-3,-8.807096E-3,1.673688E-2,-2.6374642E-2,3.4889277E-2,4.5674868E-4,9.508509E-3,1.5214941E-1],"categories":[],"categories_nodes":[],"categories_segments":[],"categories_sizes":[],"default_left":[0,0,0,0,0,0,0,0,0,0,0,0,0,0,0],"id":83,"left_children":[1,3,5,7,9,11,13,-1,-1,-1,-1,-1,-1,-1,-1],"loss_changes":[6.387887E-1,9.599994E-1,2.578832E0,8.318571E-1,4.9706024E-1,2.585942E0,4.3553762E0,0E0,0E0,0E0,0E0,0E0,0E0,0E0,0E0],"parents":[2147483647,0,0,1,1,2,2,3,3,4,4,5,5,6,6],"right_children":[2,4,6,8,10,12,14,-1,-1,-1,-1,-1,-1,-1,-1],"split_conditions":[1E0,2.5E0,4E1,1E0,1E0,7.5E1,1.5E0,-1.2056364E-3,-8.807096E-3,1.673688E-2,-2.6374642E-2,3.4889277E-2,4.5674868E-4,9.508509E-3,1.5214941E-1],"split_indices":[11,6,0,13,18,2,6,0,0,0,0,0,0,0,0],"split_type":[0,0,0,0,0,0,0,0,0,0,0,0,0,0,0],"sum_hessian":[4.076E3,1.497E3,2.579E3,1.459E3,3.8E1,2.569E3,1E1,1.298E3,1.61E2,3.6E1,2E0,2.1E1,2.548E3,8E0,2E0],"tree_param":{"num_deleted":"0","num_feature":"27","num_nodes":"15","size_leaf_vector":"1"}},{"base_weights":[9.0006964E-5,-2.482916E-3,5.8518767E-2,-2.9215696E-3,4.2615414E-1,9.368416E-2,-5.6123912E-2,3.4160697E-4,-3.0197005E-3,4.9094584E-2,1.1588955E-2,-4.026704E-2,1.0441785E-2,-1.3907281E-2,1.5592532E-2],"categories":[],"categories_nodes":[],"categories_segments":[],"categories_sizes":[],"default_left":[0,0,0,0,0,0,0,0,0,0,0,0,0,0,0],"id":84,"left_children":[1,3,5,7,9,11,13,-1,-1,-1,-1,-1,-1,-1,-1],"loss_changes":[6.130517E-1,7.356638E-1,6.986681E-1,6.7478293E-1,2.3514807E-2,7.453042E-1,7.428442E-1,0E0,0E0,0E0,0E0,0E0,0E0,0E0,0E0],"parents":[2147483647,0,0,1,1,2,2,3,3,4,4,5,5,6,6],"right_children":[2,4,6,8,10,12,14,-1,-1,-1,-1,-1,-1,-1,-1],"split_conditions":[1E0,1E0,1.9E2,1.04E2,3E0,1E0,4.91E0,3.4160697E-4,-3.0197005E-3,4.9094584E-2,1.1588955E-2,-4.026704E-2,1.0441785E-2,-1.3907281E-2,1.5592532E-2],"split_indices":[23,15,9,9,0,7,10,0,0,0,0,0,0,0,0],"split_type":[0,0,0,0,0,0,0,0,0,0,0,0,0,0,0],"sum_hessian":[4.076E3,3.905E3,1.71E2,3.902E3,3E0,1.31E2,4E1,3.167E3,7.35E2,2E0,1E0,2E0,1.29E2,2.9E1,1.1E1],"tree_param":{"num_deleted":"0","num_feature":"27","num_nodes":"15","size_leaf_vector":"1"}},{"base_weights":[8.848943E-5,8.6490234E-4,-1.8538806E-1,1.5704586E-1,-2.1936424E-4,-2.6388517E-1,2.5041897E-3,6.1641622E-2,7.7264756E-3,-4.472106E-3,3.3293982E-4,-1.1445566E-2,-3.24293E-2,2.0580196E-3,-4.3937922E-3],"categories":[],"categories_nodes":[],"categories_segments":[],"categories_sizes":[],"default_left":[0,0,0,0,0,0,0,0,0,0,0,0,0,0,0],"id":85,"left_children":[1,3,5,7,9,11,13,-1,-1,-1,-1,-1,-1,-1,-1],"loss_changes":[5.872744E-1,6.8773144E-1,2.5139385E-1,9.785467E-1,6.372221E-1,7.120335E-2,5.941178E-3,0E0,0E0,0E0,0E0,0E0,0E0,0E0,0E0],"parents":[2147483647,0,0,1,1,2,2,3,3,4,4,5,5,6,6],"right_children":[2,4,6,8,10,12,14,-1,-1,-1,-1,-1,-1,-1,-1],"split_conditions":[1E0,5E-1,1E2,2E0,1E0,4.49E0,9.9E1,6.1641622E-2,7.7264756E-3,-4.472106E-3,3.3293982E-4,-1.1445566E-2,-3.24293E-2,2.0580196E-3,-4.3937922E-3],"split_indices":[14,6,1,5,7,10,2,0,0,0,0,0,0,0,0],"split_type":[0,0,0,0,0,0,0,0,0,0,0,0,0,0,0],"sum_hessian":[4.076E3,4.06E3,1.6E1,2.7E1,4.033E3,1.1E1,5E0,3E0,2.4E1,2.97E2,3.736E3,4E0,7E0,4E0,1E0],"tree_param":{"num_deleted":"0","num_feature":"27","num_nodes":"15","size_leaf_vector":"1"}},{"base_weights":[8.441275E-5,-2.3720835E-4,4.3692493E-1,-2.9357573E-2,4.6232007E-3,5.7435323E-2,8.103418E-3,-1.6631162E-3,-2.0644825E-2,1.0524603E-3,-4.2357757E-3],"categories":[],"categories_nodes":[],"categories_segments":[],"categories_sizes":[],"default_left":[0,0,0,0,0,0,0,0,0,0,0],"id":86,"left_children":[1,3,5,7,9,-1,-1,-1,-1,-1,-1],"loss_changes":[5.729105E-1,5.768985E-1,1.0018605E-1,1.3104904E0,9.6889234E-1,0E0,0E0,0E0,0E0,0E0,0E0],"parents":[2147483647,0,0,1,1,2,2,3,3,4,4],"right_children":[2,4,6,8,10,-1,-1,-1,-1,-1,-1],"split_conditions":[1.4E1,4.43E0,2E0,6.6E1,1E0,5.7435323E-2,8.103418E-3,-1.6631162E-3,-2.0644825E-2,1.0524603E-3,-4.2357757E-3],"split_indices":[8,10,0,9,26,0,0,0,0,0,0],"split_type":[0,0,0,0,0,0,0,0,0,0,0],"sum_hessian":[4.076E3,4.074E3,2E0,5.82E2,3.492E3,1E0,1E0,5.44E2,3.8E1,3.103E3,3.89E2],"tree_param":{"num_deleted":"0","num_feature":"27","num_nodes":"11","size_leaf_vector":"1"}},{"base_weights":[8.586373E-5,2.7514347E-3,-5.2709196E-2,5.894308E-3,-4.7643095E-2,-1.7642798E-1,-3.6854785E-2,9.923538E-4,-3.9363275E-3,3.0994716E-3,-6.9906497E-3,-3.3229046E-2,-1.1103958E-2,7.101617E-2,-5.8481847E-3],"categories":[],"categories_nodes":[],"categories_segments":[],"categories_sizes":[],"default_left":[0,0,0,0,0,0,0,0,0,0,0,0,0,0,0],"id":87,"left_children":[1,3,5,7,9,11,13,-1,-1,-1,-1,-1,-1,-1,-1],"loss_changes":[5.7389706E-1,6.151261E-1,3.779496E-1,6.6689146E-1,4.013366E-1,1.8731773E-1,2.8687916E0,0E0,0E0,0E0,0E0,0E0,0E0,0E0,0E0],"parents":[2147483647,0,0,1,1,2,2,3,3,4,4,5,5,6,6],"right_children":[2,4,6,8,10,12,14,-1,-1,-1,-1,-1,-1,-1,-1],"split_conditions":[1E0,1E0,9.7E1,1E0,9.6E1,1.6E1,9.8E1,9.923538E-4,-3.9363275E-3,3.0994716E-3,-6.9906497E-3,-3.3229046E-2,-1.1103958E-2,7.101617E-2,-5.8481847E-3],"split_indices":[19,25,1,22,2,9,1,0,0,0,0,0,0,0,0],"split_type":[0,0,0,0,0,0,0,0,0,0,0,0,0,0,0],"sum_hessian":[4.076E3,3.881E3,1.95E2,3.654E3,2.27E2,2.1E1,1.74E2,3.356E3,2.98E2,5E1,1.77E2,5E0,1.6E1,4E0,1.7E2],"tree_param":{"num_deleted":"0","num_feature":"27","num_nodes":"15","size_leaf_vector":"1"}},{"base_weights":[8.075407E-5,3.8553197E-3,-3.581674E-2,1.3689928E-1,2.2121947E-3,-6.048523E-2,4.0902764E-2,7.4299E-2,1.0623835E-2,3.4008508E-3,-4.8141787E-4,-1.6576126E-2,-4.2281444E-3,1.5504923E-4,5.3539556E-2],"categories":[],"categories_nodes":[],"categories_segments":[],"categories_sizes":[],"default_left":[0,0,0,0,0,0,0,0,0,0,0,0,0,0,0],"id":88,"left_children":[1,3,5,7,9,11,13,-1,-1,-1,-1,-1,-1,-1,-1],"loss_changes":[5.5256116E-1,8.0636007E-1,7.3678505E-1,7.5731456E-1,8.1472665E-1,5.5641973E-1,1.8478143E0,0E0,0E0,0E0,0E0,0E0,0E0,0E0,0E0],"parents":[2147483647,0,0,1,1,2,2,3,3,4,4,5,5,6,6],"right_children":[2,4,6,8,10,12,14,-1,-1,-1,-1,-1,-1,-1,-1],"split_conditions":[1.4E1,1E0,1.5E0,3E0,9.6E1,9.7E1,4.2E1,7.4299E-2,1.0623835E-2,3.4008508E-3,-4.8141787E-4,-1.6576126E-2,-4.2281444E-3,1.5504923E-4,5.3539556E-2],"split_indices":[0,8,6,9,1,1,0,0,0,0,0,0,0,0,0],"split_type":[0,0,0,0,0,0,0,0,0,0,0,0,0,0,0],"sum_hessian":[4.076E3,3.689E3,3.87E2,4.4E1,3.645E3,2.93E2,9.4E1,1E0,4.3E1,6.59E2,2.986E3,4.2E1,2.51E2,8.8E1,6E0],"tree_param":{"num_deleted":"0","num_feature":"27","num_nodes":"15","size_leaf_vector":"1"}},{"base_weights":[1.0242742E-4,-1.4367281E-1,1.0249481E-3,-2.615775E-1,-5.3633794E-2,7.669714E-2,-9.681977E-4,-3.5787985E-2,-1.21678915E-2,-1.835843E-2,4.9817364E-4,4.034184E-3,6.637767E-2,-1.3902871E-3,1.173332E-3],"categories":[],"categories_nodes":[],"categories_segments":[],"categories_sizes":[],"default_left":[0,0,0,0,0,0,0,0,0,0,0,0,0,0,0],"id":89,"left_children":[1,3,5,7,9,11,13,-1,-1,